tree
version=v4
num_class=1
num_tree_per_iteration=1
label_index=0
max_feature_idx=27
objective=binary sigmoid:1
feature_names=Column_0 Column_1 Column_2 Column_3 Column_4 Column_5 Column_6 Column_7 Column_8 Column_9 Column_10 Column_11 Column_12 Column_13 Column_14 Column_15 Column_16 Column_17 Column_18 Column_19 Column_20 Column_21 Column_22 Column_23 Column_24 Column_25 Column_26 Column_27
feature_infos=[0.27500000000000002:6.6950000000000003] [-2.4169999999999998:2.4300000000000002] [-1.7429999999999999:1.7429999999999999] [0.019:5.7000000000000002] [-1.7429999999999999:1.7429999999999999] [0.159:4.1900000000000004] [-2.9409999999999998:2.9699999999999998] [-1.7410000000000001:1.7410000000000001] [0:2.173] [0.19:5.1929999999999996] [-2.9039999999999999:2.9089999999999998] [-1.742:1.7429999999999999] [0:2.2149999999999999] [0.26400000000000001:6.5229999999999997] [-2.7279999999999998:2.7269999999999999] [-1.742:1.742] [0:2.548] [0.36499999999999999:6.0679999999999996] [-2.4950000000000001:2.496] [-1.74:1.7429999999999999] [0:3.1019999999999999] [0.17199999999999999:13.098000000000001] [0.41899999999999998:7.3920000000000003] [0.46100000000000002:3.6819999999999999] [0.38400000000000001:6.5830000000000002] [0.092999999999999999:7.8600000000000003] [0.38900000000000001:4.5430000000000001] [0.48899999999999999:4.3159999999999998]
tree_sizes=6619 6731 6739 6737 6759 6750 6738 6746 6768 6733 6778 6739 6777 6723 6743 6753 6750 6784 6756 6773 6763 6756 6768 6784 6788 6782 6779 6788 6765 6793 6760 6771 6792 6739 6772 6774 6767 6783 6785 6798 6777 6793 6766 6804 6771 6798 6789 6785 6770 6765 6787 6777 6788 6808 6778 6776 6777 6771 6761 6795 6769 6799 6785 6818 6800 6771 6782 6795 6764 6789 6793 6797 6790 6784 6769 6798 6778 6774 6748 6768 6810 6766 6773 6802 6789 6789 6776 6806 6799 6786 6790 6794 6792 6775 6809 6818 6784 6826 6798 6771

Tree=0
num_leaves=63
num_cat=0
split_feature=25 26 25 25 26 5 5 26 24 22 3 3 25 17 25 22 10 26 24 25 25 22 3 5 17 22 15 9 7 22 14 11 7 25 9 13 17 14 22 20 26 13 25 25 5 17 2 24 9 9 11 3 1 5 5 22 23 24 9 24 11 19
split_gain=266.972 161.884 88.7119 110.138 39.8945 34.5306 26.5703 26.2445 29.573 25.3185 23.7246 21.5841 16.509 16.6855 16.2179 13.6181 13.6165 12.4386 17.3063 12.8817 13.0309 11.196 11.0778 10.6627 9.71385 12.5652 9.65093 9.5431 9.03504 8.81863 8.79372 8.77842 8.91169 8.71582 8.52824 8.51314 9.03685 9.18927 8.33587 8.19329 8.05719 8.2284 8.03117 7.65121 7.38478 8.86416 9.08474 7.2964 7.23336 8.69584 7.04855 6.76263 10.7842 6.62967 6.56584 6.44127 6.20575 5.84825 5.7145 5.70307 5.43135 7.55485
threshold=1.2815000000000003 0.81150000000000022 0.63950000000000007 0.98450000000000004 1.0535000000000003 0.82050000000000012 0.89050000000000018 1.0095000000000003 1.2565000000000002 1.0355000000000001 1.3845000000000003 2.0310000000000001 1.5165000000000002 1.4605000000000004 0.58150000000000002 0.81650000000000011 0.57750000000000001 0.76750000000000018 0.71850000000000003 0.93050000000000022 0.59250000000000014 0.99250000000000005 1.7525000000000002 1.3585000000000003 0.88750000000000007 1.3210000000000004 -0.51049999999999984 0.74550000000000016 -0.62749999999999984 0.8135 0.14850000000000002 0.40450000000000008 0.26300000000000007 1.0675000000000001 0.9105000000000002 1.1975000000000002 1.0035000000000001 -0.035499999999999997 1.0605000000000002 1.0000000180025095e-35 0.92250000000000021 0.96150000000000013 2.0390000000000001 0.8025000000000001 1.1225000000000003 0.70250000000000001 0.16350000000000003 0.94150000000000011 0.64450000000000018 0.9105000000000002 0.49500000000000005 0.71650000000000003 -0.15249999999999997 1.0615000000000003 1.0145000000000002 1.0285000000000002 1.0435000000000001 0.85050000000000014 0.77250000000000008 0.97750000000000015 1.1425000000000003 -0.74749999999999994
decision_type=2 2 2 2 2 2 2 2 2 2 2 2 2 2 2 2 2 2 2 2 2 2 2 2 2 2 2 2 2 2 2 2 2 2 2 2 2 2 2 2 2 2 2 2 2 2 2 2 2 2 2 2 2 2 2 2 2 2 2 2 2 2
left_child=1 5 22 4 6 17 10 16 42 15 38 44 -10 -14 31 28 21 18 50 20 -19 -2 23 29 30 -26 -16 -12 -5 -3 -11 32 -7 54 -30 36 37 -35 48 -28 41 -31 47 56 45 -6 -47 55 -4 -50 -1 -42 -53 -49 -17 -9 57 -8 -40 -51 61 -20
right_child=7 2 3 9 11 14 43 8 12 24 27 -13 13 -15 26 33 -18 19 60 -21 -22 -23 -24 -25 25 -27 39 -29 34 40 -32 -33 -34 35 -36 -37 -38 -39 58 -41 51 -43 -44 -45 -46 46 -48 53 49 59 -52 52 -54 -55 -56 -57 -58 -59 -60 -61 -62 -63
leaf_value=0.10699656776983928 0.084137685379167423 0.15328889219783598 0.24220228934979909 0.07583894673347491 0.10170790859239187 0.0094305342487693844 0.25384087710485054 -0.050831486794052763 0.13689783311925346 0.1760312863876112 0.056513911985114046 0.038992547146600151 -0.0028360348599719559 0.12511408322785872 0.22280464309137993 0.085638521091686279 0.010885357718150801 0.047023172697585672 0.056513911985114018 0.014900670493643561 0.17075429229795525 0.19157443261532511 0.032707709758872355 0.18212663784945982 0.23934280873756661 0.12511408322785872 0.18354380706433959 0.17566470275016513 0.12720195796059988 0.078174939944815239 0.063084423799556727 0.15142130486039751 0.11455941708538198 0.13095108286768931 0.23627319747458417 0.11754210331717732 -0.022575582077622211 0.014346834248748039 0.20982585432211043 0.089563783724427914 -0.0049645611324785205 0.17579998956874643 -0.058344172893793358 0.27270387297664811 0.20626460130615232 0.21798144456225951 0.13403541449228451 -0.016491774842027115 0.15248496387377306 0.18810440937847842 0.03598106256498057 0.014603239917681157 0.1380369289420883 0.058967884651572544 0.17551318151335407 0.020923639656882709 0.28841432896544472 0.17832114756426556 0.29291327885395202 0.26408978273989592 0.069934075004809082 -0.013377788200111138
leaf_weight=46.820759654045105 27.644171923398972 21.418007075786591 34.368429958820343 12.701376289129255 20.9199138879776 17.184214979410172 17.184214979410172 33.621290177106857 23.410379827022552 15.440888822078707 13.69756266474724 12.45232969522476 34.617476552724838 14.444702446460722 20.172774106264114 23.410379827022552 14.942795634269713 12.45232969522476 21.916100263595581 12.45232969522476 26.897032141685486 14.942795634269713 22.912286639213562 16.935168385505676 28.889404892921448 14.444702446460722 18.678494542837143 13.199469476938246 15.689935415983202 22.663240045309067 12.45232969522476 14.942795634269713 15.191842228174208 12.701376289129257 13.199469476938246 15.938982009887694 17.931354761123657 14.444702446460724 13.697562664747236 18.429447948932648 14.195655852556227 13.946609258651732 28.889404892921448 109.33145472407341 51.054551750421524 27.644171923398972 24.157519608736038 19.176587730646133 37.606035679578781 24.207328945398331 19.923727512359619 13.448516070842743 14.942795634269714 29.636544674634933 12.45232969522476 19.923727512359619 12.701376289129255 25.427657246589661 20.9199138879776 16.686121791601181 16.935168385505676 52.548831313848495
leaf_count=188 111 86 138 51 84 69 69 135 94 62 55 50 139 58 81 94 60 50 88 50 108 60 92 68 116 58 75 53 63 91 50 60 61 51 53 64 72 58 55 74 57 56 116 439 205 111 97 77 151 97 80 54 60 119 50 80 51 102 84 67 68 211
internal_value=0.123666 0.145449 0.168712 0.183558 0.210194 0.084404 0.22856 0.0333734 0.0165304 0.12319 0.201358 0.164488 0.0678035 0.0348346 0.131345 0.098269 0.0930168 0.0610172 0.0470864 0.103546 0.131599 0.121835 0.0963175 0.108716 0.171638 0.201267 0.167133 0.114986 0.146132 0.0963598 0.125609 0.0880216 0.0587602 0.0777212 0.177036 0.054726 0.0325148 0.0689048 0.217109 0.136869 0.0809639 0.115365 -0.0117817 0.257371 0.177113 0.156647 0.178834 0.00135998 0.203943 0.187192 0.0857979 0.0513907 0.0795683 0.029323 0.116845 -0.0241319 0.227063 0.208776 0.260037 0.219109 0.0188175 0.00719234
internal_weight=0 1139.96 825.415 684.953 475.256 314.546 339.027 261.25 203.72 209.697 174.382 136.228 72.4726 49.0622 104.6 138.47 57.5298 209.946 158.145 51.8017 39.3494 42.587 140.462 117.55 71.2273 43.3341 57.2807 26.897 41.5908 100.615 27.8932 47.3189 32.3761 96.8791 28.8894 61.0164 45.0774 27.1461 147.485 37.1079 79.1968 36.6098 131.248 164.645 123.776 72.7216 51.8017 102.358 112.868 78.4995 66.7445 42.587 28.3913 48.8131 35.8627 53.545 55.3132 42.6119 34.6175 40.8935 91.4001 74.4649
internal_count=5626 4577 3314 2750 1908 1263 1361 1049 818 842 700 547 291 197 420 556 231 843 635 208 158 171 564 472 286 174 230 108 167 404 112 190 130 389 116 245 181 109 592 149 318 147 527 661 497 292 208 411 453 315 268 171 114 196 144 215 222 171 139 164 367 299
is_linear=0
shrinkage=1


Tree=1
num_leaves=63
num_cat=0
split_feature=27 26 24 22 3 22 22 22 26 9 27 26 26 22 26 27 3 22 24 22 22 24 24 22 21 21 7 2 14 27 9 14 27 9 24 15 2 13 19 3 0 14 14 22 22 27 0 9 13 15 26 6 2 9 24 27 2 18 14 9 9 26
split_gain=166.602 184.967 81.0579 90.9664 25.8949 21.0474 20.2886 19.3607 16.0934 15.656 15.9996 14.3134 13.8938 13.7272 13.532 17.0357 19.6191 13.4901 14.802 12.185 14.6312 12.6385 11.992 10.9067 10.4038 10.2568 8.45534 8.41164 8.39861 10.1762 8.51202 8.30474 8.26787 8.11105 7.91931 7.8653 7.63436 7.62722 7.57353 7.57007 7.30335 7.10595 6.97763 6.56938 8.22733 7.05675 6.36752 7.35345 7.70305 7.00769 6.25199 6.21841 6.00589 6.12908 5.92638 5.74963 5.62678 5.39034 5.24266 5.20833 5.20022 5.17255
threshold=0.90250000000000019 0.81150000000000022 1.0265000000000002 1.0465000000000002 2.0310000000000001 1.0405000000000002 0.74450000000000005 1.0705000000000002 0.75750000000000017 0.99050000000000005 0.6735000000000001 1.2195000000000003 1.3665000000000003 1.5530000000000002 0.85650000000000015 0.82050000000000012 0.49250000000000005 0.78450000000000009 0.73950000000000016 1.0465000000000002 0.76250000000000007 1.2285000000000001 0.82250000000000012 0.98150000000000015 0.78850000000000009 0.57350000000000001 -0.18949999999999997 1.2955000000000003 0.94350000000000012 0.7965000000000001 0.77550000000000019 -0.44799999999999995 0.74150000000000016 0.69350000000000012 0.96250000000000002 -0.58149999999999979 -0.77149999999999996 0.93050000000000022 -0.35149999999999992 0.89750000000000008 0.92050000000000021 0.82350000000000001 -0.53349999999999997 0.94450000000000001 0.84050000000000014 0.77850000000000008 1.0575000000000003 1.1610000000000003 0.9085000000000002 0.6625000000000002 1.2375000000000003 1.0375000000000003 0.44550000000000006 1.0805000000000002 0.70750000000000013 1.1455000000000002 0.36550000000000005 0.20850000000000002 0.48450000000000004 1.2545000000000002 0.76650000000000007 0.88850000000000018
decision_type=2 2 2 2 2 2 2 2 2 2 2 2 2 2 2 2 2 2 2 2 2 2 2 2 2 2 2 2 2 2 2 2 2 2 2 2 2 2 2 2 2 2 2 2 2 2 2 2 2 2 2 2 2 2 2 2 2 2 2 2 2 2
left_child=1 7 3 17 19 6 25 8 9 24 -11 -6 22 -14 28 43 -17 -2 -19 20 -4 55 37 32 33 -3 -18 31 29 30 -8 38 39 -1 -28 -33 -24 -5 -26 -10 -36 42 50 44 45 -16 49 48 -48 52 -21 -20 53 -23 -9 -22 -43 -46 -37 -27 -34 -7
right_child=2 5 4 12 11 61 14 54 23 10 -12 -13 13 -15 15 16 26 18 51 41 21 46 36 -25 27 59 34 -29 -30 -31 -32 35 60 -35 40 58 -38 -39 -40 -41 -42 56 -44 -45 57 -47 47 -49 -50 -51 -52 -53 -54 -55 -56 -57 -58 -59 -60 -61 -62 -63
leaf_value=-0.1370600771301029 -0.047201350505187575 0.034121591396478836 0.053137335031689908 0.0085096909148963274 -0.010037740968094323 0.073637671050057155 -0.030553555614489698 0.074548635763948157 0.082640022571065536 0.075281416127439313 -0.07204251737747365 -0.13821845688712517 -0.14428058327676643 -0.015502504160865422 0.056126944972998097 -0.049919731455265959 0.083569319853384436 -0.070911741665264899 -0.169874064664567 0.051320732632459592 -0.048104569959465562 0.019839096350360096 0.045700702444163223 -0.078214248171648057 0.056094308149197469 0.10807142083937096 -0.017449911506070732 -0.12798751313654322 0.078620514202349639 -0.07638841312850897 0.058337069630761962 -0.011619557088054885 0.020305041835847783 -0.049660282949188783 0.01448854272594096 -0.11964053839397196 -0.045327811845590378 0.11212266851534779 -0.045490652227070848 -0.010020571668677279 0.11808987527384718 -0.064245245840202733 0.059237976504305262 0.12101590423309208 0.01214940167838854 0.14927591589198949 0.042856881876099685 -0.10202101877732622 -0.061010232154544888 -0.034954807095330588 -0.023971862419600684 -0.10536171307271491 -0.0092746595621255468 0.11528723149978957 -0.012470535465879035 -0.12572500967123598 0.024873534410805417 0.081240799511040518 -0.050543434175971638 0.1784978465335483 -0.068639131023099556 0.12246319947352324
leaf_weight=31.690177828073502 16.411997556686401 15.875609412789343 27.056406632065773 13.407062724232675 14.440410435199736 30.39787845313549 19.844005793333054 20.382116064429283 22.634963840246201 16.675516813993458 13.212226465344427 21.959021180868149 13.211685761809347 22.16372312605381 14.63421794772148 23.400760769844055 45.398500800132751 23.161767363548279 89.219644725322723 18.825821772217751 36.333898603916168 14.682363614439966 12.884824752807615 15.197799026966093 13.965311795473101 44.035928979516029 24.09918799996376 12.72532746195793 14.127387315034865 15.63461112976074 23.565471008419991 21.448537170886993 12.439850628376009 15.969021186232565 15.131787389516832 22.220436349511147 32.333766311407089 15.11332421004772 15.4675355553627 14.44236385822296 12.364431411027907 14.176099270582201 59.565354973077774 36.637000724673271 25.798656672239304 18.307146102190018 13.89489431679249 12.677797526121138 14.687662839889525 22.370383694767952 26.626748085021973 17.947058245539665 19.431692481040955 12.417375549674032 12.704755678772925 12.942361935973166 14.162720963358877 20.081456437706947 21.708544746041298 13.789110019803045 13.938691034913061 75.808589220046997
leaf_count=127 66 64 109 54 58 123 80 82 91 67 53 88 53 89 59 94 183 93 358 76 146 59 52 61 56 178 97 51 57 63 95 86 50 64 61 89 130 61 62 58 50 57 240 148 104 74 56 51 59 90 107 72 78 50 51 52 57 81 87 56 56 307
internal_value=0 0.0312993 -0.0382856 -0.081226 -0.00744644 0.0691025 0.0581728 -0.0309706 -0.0400166 -0.0561199 0.0101551 -0.0873665 -0.0120783 -0.0635974 0.0469288 0.0585844 0.0322654 -0.132643 -0.143403 0.00164855 -0.0148564 -0.0263948 0.0126373 -0.00212322 -0.0688833 0.105319 0.0520934 -0.0516466 0.00935932 -0.0072127 0.017702 -0.0414002 0.0161007 -0.107775 0.024398 -0.0612582 -0.0193897 0.0634156 0.00270943 0.0465469 0.0610757 0.0247301 0.0367213 0.0860285 0.069766 0.107894 -0.0075646 -0.0386329 -0.0105171 0.01104 0.00721328 -0.15907 0.0331524 0.0635744 0.0411349 -0.0684915 -0.0197069 0.0423903 -0.0854946 0.124865 -0.026694 0.108489
internal_weight=0 785.755 612.106 255.855 356.251 488.932 382.725 296.823 263.736 185.083 29.8877 36.3994 109.114 35.3754 309.025 235.853 120.395 146.74 130.328 319.852 186.495 159.438 73.739 78.6537 155.195 73.7006 96.9939 107.536 73.1715 59.0441 43.4095 94.8104 63.4559 47.6592 51.5954 65.3775 45.2186 28.5204 29.4328 37.0773 27.4962 133.357 105.018 115.458 78.8215 32.9414 110.162 41.2604 28.5826 68.9018 45.4526 107.167 46.5314 27.0997 33.0869 49.2763 28.3388 45.8801 43.929 57.825 26.3785 106.206
internal_count=5626 3165 2461 1028 1433 1974 1544 1191 1058 742 120 146 439 142 1246 951 485 589 523 1287 750 641 297 316 622 298 391 431 295 238 175 380 255 191 208 262 182 115 118 149 111 537 423 466 318 133 443 166 115 277 183 430 187 109 133 198 114 185 176 234 106 430
is_linear=0
shrinkage=0.1


Tree=2
num_leaves=63
num_cat=0
split_feature=27 26 24 22 5 5 3 22 26 27 5 27 26 24 26 5 26 0 3 3 23 24 21 3 23 24 27 21 17 21 2 5 22 26 26 8 0 27 15 9 0 15 1 7 26 26 6 6 10 22 15 19 24 0 18 0 19 22 24 27 15 15
split_gain=135.527 151.278 65.7718 73.9122 35.7539 33.3882 20.9788 16.0988 13.5362 12.8463 12.8186 12.6523 21.7932 11.8167 11.6074 11.3544 18.3296 11.2423 10.6836 10.5717 10.91 10.3907 10.3073 10.1231 11.3162 9.98055 11.3823 9.89017 8.77592 8.75271 9.92169 8.64845 11.7868 8.59486 8.28058 7.90078 8.3047 8.08088 7.90075 7.82306 7.43072 7.37806 6.86605 6.77117 6.65922 6.58379 7.8028 6.35661 6.30029 6.21403 11.7952 6.11389 6.03582 6.56321 5.97279 5.89468 5.75526 5.71762 5.62604 5.38649 4.98102 4.88125
threshold=0.90250000000000019 0.81150000000000022 1.0265000000000002 1.0485000000000002 0.85250000000000015 0.89350000000000007 2.0310000000000001 1.0605000000000002 0.77650000000000008 1.0885000000000002 1.3665000000000003 0.84050000000000014 0.90150000000000008 0.8025000000000001 1.2195000000000003 1.1425000000000003 1.1165000000000003 0.7855000000000002 0.84450000000000014 0.77350000000000019 0.99350000000000016 0.71850000000000003 0.95950000000000013 0.60050000000000014 0.99450000000000005 0.75450000000000006 0.75450000000000006 0.82250000000000012 0.74050000000000005 0.93450000000000022 0.095500000000000015 0.9195000000000001 1.0485000000000002 0.86050000000000015 1.0345000000000002 1.6300000000000001 1.1495000000000002 1.1045000000000003 0.48000000000000004 1.1825000000000003 0.56650000000000011 0.21850000000000003 -0.28949999999999992 -0.90649999999999997 0.97250000000000003 1.3435000000000001 0.083500000000000019 0.072500000000000009 0.049000000000000009 0.74850000000000005 0.59650000000000014 0.9125000000000002 1.2805000000000002 1.4035000000000002 -0.35349999999999993 0.99550000000000016 0.047500000000000007 0.87650000000000017 0.85750000000000004 0.97750000000000015 0.15350000000000003 -0.49899999999999994
decision_type=2 2 2 2 2 2 2 2 2 2 2 2 2 2 2 2 2 2 2 2 2 2 2 2 2 2 2 2 2 2 2 2 2 2 2 2 2 2 2 2 2 2 2 2 2 2 2 2 2 2 2 2 2 2 2 2 2 2 2 2 2 2
left_child=1 4 3 9 8 7 15 11 21 22 19 17 -13 59 -8 31 48 25 -10 54 -21 49 55 24 44 -3 -27 -18 -9 40 -31 32 34 47 -4 36 -15 -37 61 56 -23 -24 60 -35 51 46 -33 -19 -17 -1 -51 -7 -44 -54 -6 58 -34 -14 -2 -5 -29 -36
right_child=2 5 6 13 10 23 14 28 18 -11 -12 12 57 35 -16 16 27 33 -20 20 -22 29 41 -25 -26 26 -28 42 -30 30 -32 45 39 43 38 37 -38 -39 -40 -41 -42 -43 52 -45 -46 -47 -48 -49 -50 50 -52 -53 53 -55 -56 -57 -58 -59 -60 -61 -62 -63
leaf_value=0.030492065951500943 -0.050229093587178253 0.07932562446081623 -0.072199901164826871 0.090426413966824992 -0.0041763972813527485 0.12132857795013532 -0.0090294380789536464 0.021024081391573433 0.048652968669192977 -0.15886506832684102 0.10720029672058462 -0.11066637739710013 0.074977097221307659 0.02163819814167724 -0.124454706503055 0.13409127669302054 -0.054464624122524223 0.063175288709052063 -0.051412658938218038 -0.085289065298975064 0.029820170080907978 -0.16729147215423798 0.010017305062187218 0.10465131276860606 -0.023798281672285926 -0.090858873647645999 0.016646699394637261 -0.050197867234522409 0.12088144826384724 0.0092447982423578719 -0.10652033571708577 -0.060285617010924532 0.060339707104605768 0.034010422648684549 -0.0012116386002840355 -0.026623131460634494 -0.072025507384539139 -0.1339556269024352 -0.050906411944258094 0.1114920419300322 -0.086295520968158096 -0.097788355032990493 -0.01393111918257442 0.111972769755266 0.026911245871944569 -0.095896931576427993 0.01458915664326859 -0.025746278855173294 0.041742849970882269 -0.076352313900252863 0.018138792855423105 0.038932681577057995 0.10133689855651709 0.010814630562057208 0.082551990004964604 -0.15001116175221593 -0.030091264350255151 -0.0041160372460997156 -0.12681375274823045 0.008475406674552011 0.029175470005660738 0.076651677382467254
leaf_weight=12.479427412152289 17.909257978200912 15.778654456138609 22.108468949794769 12.303787022829054 13.137390896677969 32.542253091931343 14.447266221046446 12.240271061658857 22.329168260097504 52.705499470233917 16.370273351669312 16.647991463541985 14.812169313430784 30.792151167988777 21.947475805878639 16.553935661911968 22.644843325018883 18.291467681527138 20.433247148990631 17.65997488796711 15.42640610039234 14.470854490995405 12.962207034230234 156.43348187208176 13.24279862642288 13.384104654192923 37.281450599431992 17.882577180862427 31.322662606835365 17.706251740455631 12.723262667655943 29.278314724564552 14.58694300055504 15.753321483731268 20.153434261679649 15.659356012940409 13.668328180909155 12.706095799803732 18.925436124205589 12.601411566138266 52.13114421069622 12.441763177514074 12.661434337496756 38.04278776049614 18.250595524907112 16.92328105866909 26.529408544301987 14.342956721782683 13.341519027948378 42.375525578856468 19.194640621542931 12.451091498136519 21.086530134081841 12.915194779634474 20.07385490834713 30.62829327583313 13.598485231399534 23.866776242852211 20.65513801574707 23.038377538323402 14.171871140599249 13.407609611749647
leaf_count=50 72 64 89 50 53 133 58 50 90 212 66 67 60 124 88 67 91 74 82 71 62 58 52 640 54 54 151 72 129 71 51 118 59 64 81 63 55 51 76 51 209 50 51 155 74 68 107 58 54 170 77 51 85 52 81 123 55 96 83 93 57 54
internal_value=0 0.0283675 -0.0344984 -0.0732088 -0.0278946 0.0627865 -0.00670108 0.0375416 -0.049485 -0.119302 0.027955 0.0259748 -0.0150024 -0.0104401 -0.0786355 0.0014964 0.024069 0.0408048 0.000838417 0.00838771 -0.0316198 -0.0620636 -0.0972584 0.0900738 0.0602595 0.00987596 -0.0117526 0.00377447 0.0928236 -0.0835927 -0.0391592 -0.0142539 0.00276972 0.0645816 -0.0208641 -0.0334652 -0.0071565 -0.0747019 0.000759644 0.0459936 -0.103894 -0.0427812 0.0205282 0.0891428 0.0778605 -0.0412604 -0.0246923 0.0240939 0.0928787 -0.0338527 -0.0468945 0.098527 0.0450061 0.066953 0.0482448 -0.11726 0.0167099 0.0261728 -0.0912479 0.0370053 -0.0151054 0.0298947
internal_weight=0 781.196 611.236 255.47 296.511 484.685 355.765 251.765 213.844 147.302 82.6679 208.202 55.3269 108.168 36.3947 319.371 131.258 152.875 42.7624 66.2976 33.0864 171.081 94.5967 232.92 76.4867 66.4442 50.6656 101.362 43.5629 97.0315 30.4295 188.113 115.382 86.4305 74.5949 72.8259 44.4605 28.3655 52.4865 40.7868 66.602 25.404 78.7176 53.7961 63.2439 72.731 55.8077 32.6344 29.8955 74.0496 61.5702 44.9933 46.6632 34.0017 33.2112 69.1927 28.1854 38.6789 38.5644 35.3422 32.0544 33.561
internal_count=5626 3165 2461 1028 1191 1974 1433 1022 858 592 333 843 223 436 146 1287 529 620 172 267 133 686 380 952 312 269 205 408 179 389 122 758 465 351 300 293 179 114 211 165 267 102 317 219 258 293 225 132 121 297 247 184 188 137 134 278 114 156 155 143 129 135
is_linear=0
shrinkage=0.1


Tree=3
num_leaves=63
num_cat=0
split_feature=25 25 25 26 27 5 5 9 5 26 27 27 13 27 22 25 21 9 22 24 14 13 25 5 22 21 25 20 18 1 26 21 5 9 5 27 24 21 2 1 18 17 25 10 0 5 21 0 22 1 9 27 26 26 11 6 17 23 21 5 19 17
split_gain=189.551 106.132 80.0291 71.2881 59.7644 26.386 20.1906 19.9509 19.6051 19.5113 23.6564 17.3293 18.9676 15.9249 17.9614 15.7409 16.801 14.5227 12.7274 35.1627 12.3482 11.5728 10.2103 9.68393 9.43318 9.73564 9.30755 9.11848 9.10708 8.24962 8.10139 7.92455 8.82388 8.46853 7.85825 7.74901 8.76029 7.71207 7.68773 7.63854 7.53594 7.45703 8.33316 7.42079 8.17404 7.27228 7.24826 6.7708 6.96616 6.60644 6.51782 6.48787 9.14722 6.26737 8.33678 5.68169 5.61592 5.54091 5.23979 5.14449 5.08819 5.0681
threshold=1.2815000000000003 0.64950000000000008 0.98450000000000004 0.77650000000000008 0.90450000000000019 1.1815000000000002 1.5755000000000001 0.90750000000000008 0.82050000000000012 0.86950000000000005 0.79950000000000021 0.84450000000000014 0.9405 0.95050000000000001 1.0265000000000002 1.5585000000000002 1.0925000000000002 0.95650000000000002 1.0465000000000002 1.0185000000000002 0.79900000000000015 1.0675000000000001 0.52350000000000019 0.70450000000000002 1.1035000000000001 0.88850000000000018 0.70450000000000002 1.0000000180025095e-35 0.17350000000000002 1.1045000000000003 0.99350000000000016 1.0245000000000002 1.0855000000000004 0.92250000000000021 0.73850000000000005 0.84850000000000014 1.1275000000000002 0.99950000000000017 0.095500000000000015 -0.26249999999999996 -0.16449999999999998 1.4605000000000004 1.8325000000000002 0.62200000000000011 1.1685000000000001 0.77050000000000007 1.0675000000000001 0.89350000000000007 0.88150000000000006 -0.70949999999999991 0.90750000000000008 1.0545000000000002 0.94150000000000011 0.97450000000000003 0.45350000000000007 -0.22549999999999998 1.0435000000000001 0.99550000000000016 0.81650000000000011 0.58450000000000013 0.35750000000000004 0.80850000000000011
decision_type=2 2 2 2 2 2 2 2 2 2 2 2 2 2 2 2 2 2 2 2 2 2 2 2 2 2 2 2 2 2 2 2 2 2 2 2 2 2 2 2 2 2 2 2 2 2 2 2 2 2 2 2 2 2 2 2 2 2 2 2 2 2
left_child=1 6 3 8 9 7 11 21 20 10 37 12 17 -7 -15 16 43 23 19 40 59 53 -14 47 25 30 -11 -10 -27 38 -13 33 57 -20 -23 -17 -37 -5 61 -25 -6 42 -38 44 50 -12 -28 58 -49 -9 -2 52 -51 55 -55 -4 -52 -33 -1 -3 -19 -21
right_child=15 2 5 4 18 13 -8 49 27 26 45 24 22 14 -16 35 -18 60 31 29 -22 34 -24 39 -26 28 46 -29 -30 -31 -32 32 -34 -35 -36 36 41 -39 -40 -41 -42 -43 -44 -45 -46 -47 -48 48 -50 51 56 -53 -54 54 -56 -57 -58 -59 -60 -61 -62 -63
leaf_value=-0.15363655799615297 -0.069761805285726161 -0.04660586611353322 -0.06892072375169836 0.10690223207053365 -0.015945545212348519 0.10951565069280503 0.063390700425022845 0.060411286680572433 0.095798980785409993 0.03926213130650414 -0.070322422052782982 -0.16187240540963202 -0.0040264675189225965 -0.068483645151887818 0.07605806321190918 -0.021644222287871603 0.026261738446687839 0.06759626513375637 0.038440420743533162 0.046205369621961027 0.024318556897365288 -0.067836543208682029 0.089188943551345601 0.028447214596509836 -0.021686745125678614 -0.097849026431343564 0.13360100692947238 -0.020035316044884059 -0.0036594915661921513 -0.022634682973436397 -0.061658696966064998 -0.038645971857119869 0.077847830958537187 0.13248610638873354 0.027676640606975098 -0.12728304017553968 -0.044022907975022285 0.022034957303087504 0.020912889983024277 -0.054320578920243084 -0.11103622347185108 -0.016771469689691603 -0.13186385562143316 -0.11693711599441284 -0.11186991175798591 0.037466599115538762 0.063193739033234997 0.0003233498935111048 -0.099281526462006803 -0.040859719461921386 -0.040523265931973619 -0.064868499126346235 0.052573142365825713 -0.0024139817334812527 -0.11115640730361923 -0.14721524946849593 0.053164652567628173 0.047833051210226636 -0.07619910359652235 -0.11457039563202596 -0.019647014050836659 0.12654430507143355
leaf_weight=14.895392403006552 21.99893856048584 20.167644456028938 17.046022027730942 67.471901938319206 13.447939544916151 23.888498395681381 21.140235051512718 18.255273729562759 15.058086216449738 13.001114606857298 12.865758225321771 23.085384905338287 28.537287279963493 17.328228369355202 17.062314704060555 12.302924856543539 23.975851610302925 14.533186107873918 16.94404835999012 12.857780218124388 13.687881201505659 15.129855632781981 19.976205766201019 19.362958341836929 29.249214321374893 22.835133135318756 156.14341469109058 12.385796025395393 18.648746654391289 13.628664538264273 12.399827361106871 18.011643916368488 24.079955980181694 22.015346869826317 20.001126870512962 75.395571067929268 17.942269161343575 12.72733899950981 24.016065269708633 26.289177015423775 21.916666388511658 15.648019164800642 27.129649087786674 23.044499665498734 16.301488131284714 12.189468398690222 16.132428795099258 16.134449005126957 12.43166810274124 18.736003011465073 13.332446262240412 15.124336197972296 23.774215504527092 16.325524628162388 12.409028291702269 20.314368054270744 12.301556497812269 12.586330130696295 21.138096183538437 24.872830405831337 12.379109382629393 20.170107632875443
leaf_count=60 89 81 69 277 54 98 86 74 61 54 52 93 115 70 69 50 97 59 69 52 55 61 81 78 118 92 652 50 75 55 50 73 98 90 81 306 72 52 97 106 88 63 109 93 66 50 67 65 50 76 54 61 97 66 50 82 50 51 85 100 50 82
internal_value=0 0.018486 0.037561 0.0576265 0.0723717 -0.0115708 -0.0309798 -0.0307758 -0.0262539 0.101318 0.0669358 -0.0378145 -0.0193857 0.0467954 0.0032284 -0.0763468 -0.0478547 -0.0383938 0.0302537 0.00652881 -0.05886 -0.059836 0.0343565 -0.0544701 -0.0700294 -0.0884002 0.120851 0.0435214 -0.0555069 0.0472641 -0.126854 0.0571204 0.0325641 0.0915842 -0.013458 -0.0976469 -0.104516 0.0934341 0.0639639 -0.0192153 -0.0748765 -0.0762473 -0.0968961 -0.068285 -0.0507488 -0.0178826 0.127008 -0.0793844 -0.0430236 0.00798617 -0.0298313 -0.00861906 0.0113934 -0.084487 -0.0493744 -0.111493 0.00443683 -0.00307324 -0.10821 -0.0841381 0.0274661 0.0952683
internal_weight=0 1124.81 811.773 576.378 490.206 235.395 313.036 177.116 86.1722 290.531 105.254 291.896 185.678 58.279 34.3905 259.373 110.955 137.164 199.675 106.037 58.7284 101.226 48.5135 110.252 106.218 76.9691 185.277 27.4439 41.4839 70.6726 35.4852 93.6373 54.6779 38.9594 35.131 148.418 136.116 80.1992 57.044 45.6521 35.3646 60.7199 45.0719 86.9789 63.9344 25.0552 172.276 64.5996 28.5661 75.8898 47.6329 57.6346 42.5102 66.0949 28.7346 37.3604 25.634 30.598 36.0335 45.0405 26.9123 33.0279
internal_count=5626 4577 3314 2360 2013 954 1263 717 347 1204 431 1177 749 237 139 1049 449 553 809 428 236 409 196 444 428 310 773 111 167 286 143 381 222 159 142 600 550 329 231 184 142 244 181 352 259 102 719 260 115 308 193 234 173 267 116 151 104 124 145 181 109 134
is_linear=0
shrinkage=0.1


Tree=4
num_leaves=63
num_cat=0
split_feature=25 25 25 26 3 26 21 9 5 5 0 21 26 25 21 3 3 4 5 26 8 4 9 14 7 23 19 4 0 23 23 24 4 9 14 26 3 24 26 3 3 10 26 4 6 2 11 3 21 15 1 9 5 21 24 10 14 2 15 21 16 14
split_gain=154.786 87.1866 67.702 57.8533 23.9055 21.7885 18.1053 17.0461 15.992 14.6559 13.8111 13.5763 13.2927 13.1105 13.6425 10.9088 10.8544 10.8278 12.1642 14.8783 10.5441 10.1926 9.98452 9.79279 9.31714 8.91714 8.69561 8.58582 8.05689 8.02836 7.95125 7.26249 7.14107 6.94515 6.77435 6.75518 6.66458 6.52327 7.24066 6.20645 7.91476 6.1017 6.09255 10.1075 8.39233 6.5249 6.01783 5.97361 5.94284 5.94174 5.90908 9.43582 5.7313 5.64836 5.64451 5.34166 5.33917 5.04855 7.48142 4.96688 4.69791 4.30703
threshold=1.2815000000000003 0.65950000000000009 0.98450000000000004 0.77650000000000008 1.5465000000000002 0.88850000000000018 1.0625000000000002 1.1375000000000002 0.82050000000000012 0.7985000000000001 1.3285000000000002 0.90350000000000008 1.0565000000000002 1.5585000000000002 1.0925000000000002 1.4275000000000002 1.8335000000000001 -1.4884999999999997 1.1815000000000002 1.1705000000000003 1.6300000000000001 -0.92749999999999988 0.91550000000000009 0.79900000000000015 1.1225000000000003 0.99550000000000016 1.1445000000000001 -0.69249999999999978 0.61950000000000005 0.99250000000000005 0.98750000000000016 0.7855000000000002 -0.55349999999999999 0.84450000000000014 -0.17749999999999996 0.90350000000000008 0.64550000000000007 1.1275000000000002 1.2415000000000003 1.0085000000000002 0.66550000000000009 0.12450000000000001 0.74650000000000005 0.15650000000000003 0.083500000000000019 0.17750000000000002 -0.94399999999999984 1.3665000000000003 0.7945000000000001 0.20350000000000004 0.20050000000000004 0.90750000000000008 0.48950000000000005 0.84750000000000003 0.71450000000000002 -1.4304999999999997 -0.7104999999999998 0.49150000000000005 0.37750000000000006 1.0285000000000002 1.0000000180025095e-35 0.099500000000000019
decision_type=2 2 2 2 2 2 2 2 2 2 2 2 2 2 2 2 2 2 2 2 2 2 2 2 2 2 2 2 2 2 2 2 2 2 2 2 2 2 2 2 2 2 2 2 2 2 2 2 2 2 2 2 2 2 2 2 2 2 2 2 2 2
left_child=1 7 3 8 6 21 10 11 23 -8 47 36 35 14 24 26 37 -7 29 20 -20 -4 34 60 39 -17 32 -6 -9 31 -30 -19 -13 -31 -23 -12 57 38 48 40 -2 -34 54 44 -44 -45 -39 52 -15 -10 51 -33 -5 -48 -38 -54 -11 58 -1 -32 -3 -29
right_child=13 2 5 4 27 17 9 28 49 56 12 15 -14 16 -16 25 -18 18 19 -21 -22 22 -24 -25 -26 -27 -28 61 30 33 59 50 41 -35 -36 -37 42 46 -40 -41 -42 -43 43 45 -46 -47 53 -49 -50 -51 -52 -53 55 -55 -56 -57 -58 -59 -60 -61 -62 -63
leaf_value=-0.10061668027016356 -0.090669890149506716 -0.036534532860362422 -0.13757439242577507 0.048272208160557072 -0.039647041002270338 0.098005968935863802 -0.024587188939155999 0.085586256524775028 0.088360366469942608 0.0094065734698329032 0.030323648583807091 0.059441329094822117 -0.029956349339826022 -0.013287929736664362 0.023669259323878145 -0.11824501221320641 -0.1746352287665231 0.027905272135171966 0.031561947652477385 -0.015251217992132205 0.15827694088675448 -0.018611049538639443 0.021286994768532064 0.021873168909464946 0.0099125593156790814 -0.0071962814044578011 -0.067662053380756509 0.0077637358358282034 0.061034909216590653 -0.026998496010633963 0.0071496114921781612 -0.071882401511791691 -0.039033836806390707 0.053966763458795489 -0.11582041110986607 0.099654000280863242 -0.062440672454154335 0.0037625526006931152 -0.12960417170207575 -0.11348562747281482 -0.0050397373692398816 0.031346191304189634 -0.061032491260922431 -0.050234979762060677 0.045663984909045705 -0.14555312158888012 -0.12847234811927305 0.045065578207881679 -0.094160786062283952 -0.0067230079951664818 -0.091749402491232313 0.039141675120313385 0.055001401914851866 -0.046554919435004311 -0.13705176743304864 0.11251731815114913 0.082341295804563452 0.014899437149632939 0.0017931073932593107 -0.077471373109057662 -0.10250485852416369 0.067599271854176954
leaf_weight=15.31493064761162 24.632082641124725 18.577801719307899 13.845519602298735 17.588552862405777 21.416335940361023 12.282363533973692 27.71498042345047 14.935985937714575 13.466696292161943 13.244898349046705 23.445156365633011 26.745959058403969 16.410870015621185 13.000550493597983 23.943442866206169 15.376456126570703 13.366050675511358 13.179742261767386 13.445611611008644 24.174268364906311 12.835676565766335 12.352667048573496 16.967936471104622 13.695868343114851 15.060561075806616 13.650214135646818 14.101182699203489 25.09552900493145 14.229436010122297 19.790794178843498 15.491719648241999 18.573221445083622 25.27514836192131 22.800235494971275 17.08306559920311 35.084015771746635 18.882034733891487 13.908404067158697 38.143084526062012 27.889475300908089 19.213705778121948 24.029680758714676 15.750109672546388 15.560384333133699 13.858526721596716 13.337170824408529 12.42482954263687 19.227881371974945 30.179033175110817 12.836819335818289 24.252156838774681 13.022095039486883 17.624828934669495 26.096228450536728 21.899498462677002 192.61600470542908 41.441751509904861 17.789989277720451 13.353205323219298 12.559865325689314 25.765822842717171 23.105942875146866
leaf_count=62 100 75 56 73 88 50 113 61 55 54 98 108 67 53 97 62 55 54 56 98 53 50 69 55 61 55 57 103 58 80 63 75 102 93 69 149 76 56 158 113 78 97 64 63 56 54 50 80 123 52 98 53 74 105 89 813 171 72 54 51 104 95
internal_value=0 0.0168225 0.0346448 0.053585 0.067163 -0.0104329 0.0764807 -0.0270478 -0.0227246 0.0346537 0.0871845 -0.0377381 0.0495809 -0.0691475 -0.0431578 -0.0127042 -0.0887106 0.00748144 0.000621259 0.0413686 0.093449 -0.0622756 -0.0398086 -0.0520384 -0.0615927 -0.0660227 0.00446306 0.0130381 0.0224503 -0.017798 0.000147161 -0.0388646 0.0178363 0.0163446 -0.0750266 0.0718822 -0.0582087 -0.080124 -0.0978563 -0.0766049 -0.0531458 -0.00473274 -0.0728363 -0.0521547 -0.0110925 -0.0942274 -0.0526197 0.0985908 -0.0698115 0.0419571 -0.054622 -0.0261235 0.103108 -0.0729771 -0.102506 0.107696 0.0646768 -0.0269476 -0.0529157 -0.0307387 -0.0748665 0.0364466
internal_weight=0 1115.11 792.965 558.36 474.017 234.605 404.399 322.141 84.343 82.4016 321.997 264.924 74.94 257.857 110.739 119.179 147.118 174.356 162.074 50.4556 26.2813 60.2492 46.4037 58.0395 86.7958 29.0267 90.152 69.6178 57.217 111.618 42.281 69.0272 76.0508 42.591 29.4357 58.5292 145.746 133.752 81.3227 71.7353 43.8458 49.3048 99.2877 58.5062 29.6086 28.8976 52.4295 247.057 43.1796 26.3035 55.8475 31.5953 227.829 38.5211 40.7815 210.241 54.6866 46.4581 28.6681 28.0516 44.3436 48.2015
internal_count=5626 4577 3273 2319 1978 954 1692 1304 341 338 1354 1071 314 1049 449 481 600 710 660 207 109 244 188 234 352 117 364 286 233 453 172 280 307 173 119 247 590 545 334 291 178 199 402 237 120 117 211 1040 176 107 226 128 960 155 165 887 225 188 116 114 179 198
is_linear=0
shrinkage=0.1


Tree=5
num_leaves=63
num_cat=0
split_feature=27 26 24 22 5 5 0 22 27 22 24 22 22 24 27 5 27 24 0 22 22 8 26 15 19 26 27 10 24 27 9 20 0 5 9 22 1 23 1 0 26 26 0 22 19 23 17 13 18 17 24 2 24 13 6 6 9 15 0 26 17 17
split_gain=76.7631 89.6172 50.8615 37.2324 25.5002 22.064 12.9749 12.8479 17.9343 15.8313 12.5624 12.1819 14.0162 11.0664 10.2631 10.8146 8.68988 9.21754 8.63466 8.52179 10.9088 8.43795 11.5951 8.35045 8.19105 8.0837 8.70937 10.9915 9.01943 8.69935 8.28776 7.93118 11.908 7.9078 7.73286 7.59351 7.54395 6.41979 6.3382 6.23131 8.48716 6.12246 6.80886 5.97113 5.93465 5.87913 5.77367 5.64768 5.50933 5.28366 5.12726 5.03346 5.00193 4.80842 4.79443 4.6347 5.46513 4.59032 4.86866 4.49485 4.48304 6.92104
threshold=0.90450000000000019 0.81150000000000022 0.99350000000000016 1.0215000000000003 0.89350000000000007 1.0525000000000002 1.6635000000000002 0.96450000000000002 0.82250000000000012 0.87450000000000017 0.79950000000000021 1.0325000000000002 0.76250000000000007 1.7695000000000003 1.0065000000000002 0.8045000000000001 1.0885000000000002 0.73550000000000015 0.95250000000000001 0.71350000000000013 0.94650000000000001 1.0000000180025095e-35 0.89850000000000019 -1.2274999999999998 0.80350000000000021 0.72850000000000004 0.72450000000000003 -0.12949999999999998 0.97750000000000015 0.67850000000000021 0.89650000000000019 1.0000000180025095e-35 0.58050000000000013 1.1175000000000002 1.2895000000000001 0.82750000000000001 -0.092499999999999985 0.99350000000000016 -1.0194999999999996 0.9425 0.63050000000000017 0.83850000000000013 0.7855000000000002 0.79550000000000021 0.21750000000000003 1.0155000000000001 0.63650000000000018 0.63350000000000006 -0.77649999999999986 0.84250000000000014 0.68350000000000011 -1.0084999999999997 0.89650000000000019 0.88550000000000006 -0.62449999999999994 -0.32249999999999995 0.89950000000000008 -0.73349999999999993 0.58050000000000013 1.0095000000000003 0.60150000000000003 1.1175000000000002
decision_type=2 2 2 2 2 2 2 2 2 2 2 2 2 2 2 2 2 2 2 2 2 2 2 2 2 2 2 2 2 2 2 2 2 2 2 2 2 2 2 2 2 2 2 2 2 2 2 2 2 2 2 2 2 2 2 2 2 2 2 2 2 2
left_child=1 5 3 16 7 25 10 8 41 37 49 12 33 34 15 -14 17 -2 57 -6 23 55 -23 -21 -7 29 27 -27 48 30 39 32 -25 -4 47 -19 -37 -10 -22 40 -1 -3 44 -34 -43 -36 -45 -13 -28 -5 -42 -12 -53 -33 -44 -9 -57 -16 -59 -40 -49 -62
right_child=2 4 11 6 19 24 -8 21 9 -11 51 13 14 -15 18 -17 -18 35 -20 20 38 22 -24 31 -26 26 28 -29 -30 -31 -32 53 43 -35 45 36 -38 -39 59 -41 50 42 54 46 -46 -47 -48 60 -50 -51 -52 52 -54 -55 -56 56 -58 58 -60 -61 61 -63
leaf_value=-0.11506601004894473 -0.0052963959880829442 -0.015114992495491052 -0.012401366267221882 -0.010971129069864 0.12924572702724804 0.071867568711837235 -0.10826279317959274 0.12889384698695122 -0.040486166101057035 -0.10759849900733531 0.019527420541034603 0.071601851680377762 -0.059341265857227148 -0.042699300390087375 0.01564109754299552 0.030075001720879898 -0.13902363026232478 -0.034046696669542645 -0.083055178938207352 0.11629965918823536 0.15355629996012465 -0.026825932185477703 0.071273189839584181 -0.073763125004801561 -0.022877979495693989 -0.034203890529230306 -0.11517061853656477 0.061528978468626143 0.033477425644110735 -0.076737237733187968 0.038489707918343503 0.037852936067127488 0.096536504561217762 0.093979486811865354 0.083352089244765934 -0.15520446422202783 -0.075960969497623779 0.061094731763639734 0.09110567066108588 0.0049532921960992633 0.018545087559964552 0.042311793545798997 0.018511486201689312 0.068122322482707304 -0.045558667874623787 0.0084507331562819806 -0.018418041365413206 -0.052861993600139802 -0.037967001890842712 0.06835145218354044 -0.068298364881422893 -0.014174165798275844 -0.081259056125656509 0.11794672528281047 0.090129450419465185 0.019561357510560859 0.1021609681479454 -0.072200571692313406 -0.0086463784883553663 0.030892606445386391 0.046848003483704929 -0.02184078541863228
leaf_weight=18.502975523471832 12.821540609002112 22.180464670062065 12.835116595029833 13.445293352007864 24.122366636991501 30.85233236849308 14.958828166127203 15.731737881898878 12.51151090860367 21.181064739823341 12.43826302886009 12.775963038206099 19.757339239120483 25.998634964227676 18.89469251036644 42.888855323195457 42.661059662699699 14.167252019047735 44.18780554831028 13.638319805264471 13.656515911221502 22.720413938164711 25.652778655290604 13.001325085759161 12.956841573119162 21.578310325741768 12.526864409446715 26.999381929636002 13.837343782186506 62.385412514209747 15.585663512349127 16.775783240795139 11.647084742784498 15.337626799941061 33.896673679351807 25.139128923416134 23.009294286370281 12.375345364212988 67.239342346787453 19.306197836995125 12.870328396558763 20.756920427083969 13.141663223505018 12.173422232270239 12.205948129296301 15.168876111507414 21.022833809256554 13.343163728713987 35.262311279773712 22.366394177079201 14.410481244325636 19.561241000890732 25.739101365208626 13.549719199538229 32.375840827822685 15.359790220856665 16.740464985370636 25.771426498889923 22.645320191979408 15.200055271387098 28.383247911930084 30.359109744429588
leaf_count=75 52 91 52 55 106 126 61 67 52 86 51 52 80 106 77 175 179 58 180 58 59 94 109 54 53 88 51 110 56 253 63 72 50 63 139 104 95 52 288 78 52 86 55 51 50 62 88 54 143 92 59 80 105 58 137 64 71 105 92 64 116 124
internal_value=0 0.0212225 -0.0268568 -0.0640491 0.048634 -0.0216801 -0.0217874 0.0262456 0.00762414 -0.0440551 -0.00795985 -0.00362134 -0.0199255 0.0170047 -0.0305121 0.00187492 -0.102978 -0.0825126 -0.0487089 0.0731305 0.0662907 0.0546464 0.025197 0.0434809 0.043846 -0.0330147 -0.0126593 0.0190042 -0.0376184 -0.048695 -0.0270104 0.0322171 0.0105011 0.0455138 0.0285948 -0.0984 -0.117335 0.0100264 0.0904565 -0.0426942 -0.0627863 0.0312754 0.0443864 0.0349316 0.0097739 0.0601959 0.0133172 0.0103235 -0.0582042 0.0385702 -0.027328 -0.0368196 -0.052291 0.0736396 0.0694521 0.0844289 0.0626375 -0.0261616 -0.0424752 0.0800037 -0.000537064 0.0113484
internal_weight=0 762.035 588.551 226.307 464.961 297.074 108.509 242.934 146.729 46.0679 93.5503 362.244 202.318 159.926 174.145 62.6462 117.798 75.1372 111.499 222.027 197.904 96.2052 48.3732 101.808 43.8092 253.265 110.204 48.5777 61.6265 143.061 80.6756 88.1702 57.8447 28.1727 133.927 62.3157 48.1484 24.8869 96.0959 65.09 45.7838 100.661 78.4804 44.8433 32.9629 49.0655 33.1963 84.8615 47.7892 35.8117 27.2808 57.7386 45.3003 30.3255 45.5175 47.832 32.1003 67.3114 48.4167 82.4394 72.0855 58.7424
internal_count=5578 3169 2409 932 1962 1207 444 1014 609 190 383 1477 824 653 709 255 488 309 454 948 842 405 203 431 179 1028 448 198 250 580 327 373 243 115 547 257 199 104 411 264 186 419 328 189 136 201 139 346 194 147 111 236 185 130 192 202 135 274 197 352 294 240
is_linear=0
shrinkage=0.1


Tree=6
num_leaves=63
num_cat=0
split_feature=25 26 25 3 25 24 5 0 5 13 25 26 5 9 14 24 3 3 17 9 23 10 0 8 13 0 18 0 6 26 5 13 24 7 17 25 26 0 8 6 5 24 24 6 17 25 5 14 25 15 10 17 18 6 1 8 26 26 23 8 10 2
split_gain=142.998 78.2295 52.4393 20.2433 20.0089 19.6852 16.4018 16.2037 15.9883 15.759 14.5014 13.0725 11.6603 11.342 10.6995 10.6915 9.78301 9.4542 9.37727 9.19578 8.68128 8.90018 8.41507 10.6436 8.17561 8.10323 9.46896 7.93872 7.79906 7.5634 8.36792 7.53095 7.45634 7.18671 6.91211 6.83303 10.4734 6.83191 6.82118 6.81672 6.92524 6.61138 6.44564 6.44517 6.26582 5.7201 7.52209 5.55684 5.54828 5.39155 5.26091 5.09219 5.05172 4.93525 4.77577 4.72191 4.69001 4.65008 4.56764 4.46546 8.05927 4.17715
threshold=1.0675000000000001 0.79050000000000009 0.62350000000000005 1.5555000000000003 1.5585000000000002 1.2485000000000002 0.88150000000000006 1.7305000000000004 1.3365000000000002 0.72850000000000004 0.96550000000000014 1.0165000000000002 0.88650000000000018 0.76250000000000007 -0.21149999999999997 0.73550000000000015 1.5465000000000002 1.8335000000000001 0.61350000000000005 1.2475000000000003 1.1465000000000003 0.12450000000000001 1.3285000000000002 1.6300000000000001 0.9405 0.90350000000000008 0.12850000000000003 0.89350000000000007 0.88850000000000018 1.0375000000000003 1.2555000000000003 0.80650000000000011 1.4975000000000003 -0.21049999999999996 1.3855000000000002 0.81050000000000011 0.95350000000000013 0.9425 1.6300000000000001 0.76450000000000007 0.68950000000000011 0.69150000000000011 0.9085000000000002 -0.018499999999999996 0.93550000000000011 2.1950000000000007 1.5245000000000002 0.036500000000000005 1.1325000000000003 0.096500000000000016 -0.84049999999999991 0.71950000000000014 0.68350000000000011 -0.052499999999999991 -0.14449999999999996 1.6300000000000001 0.65150000000000008 0.93950000000000011 1.0385000000000002 1.6300000000000001 0.13550000000000004 -0.70249999999999979
decision_type=2 2 2 2 2 2 2 2 2 2 2 2 2 2 2 2 2 2 2 2 2 2 2 2 2 2 2 2 2 2 2 2 2 2 2 2 2 2 2 2 2 2 2 2 2 2 2 2 2 2 2 2 2 2 2 2 2 2 2 2 2 2
left_child=1 8 24 6 5 12 10 29 15 -5 19 -9 31 -7 -12 18 28 32 56 22 21 -17 33 -24 25 42 -27 41 34 -8 37 -2 45 -4 49 36 47 55 53 40 -23 44 -3 -29 -20 46 58 -35 -33 51 -11 -14 54 -15 -50 -31 -1 -26 -6 60 -52 -37
right_child=4 2 3 9 17 13 7 11 -10 50 14 -13 16 38 -16 20 -18 -19 27 -21 -22 39 23 -25 57 26 -28 43 -30 30 -32 48 -34 35 -36 61 -38 -39 -40 -41 -42 -43 -44 -45 -46 -47 -48 -49 52 -51 59 -53 -54 -55 -56 -57 -58 -59 -60 -61 -62 -63
leaf_value=-0.087829793636491849 -0.11841292730900965 -0.028860063736645753 0.083427705513775402 0.069708238451481733 -0.10018645425510118 -0.054108009115531298 0.1031946493397006 0.072393997711640637 0.067949902925926689 -0.075202863951482679 0.043794253174419061 -0.046460863021465487 -0.0056050164352504997 -0.037725447973787407 -0.059836070830393856 -0.092035163269789055 -0.10569903265974719 -0.16008083343588467 -0.00017634028914928726 0.11032848901175377 0.0059404230896785504 -0.048606865732787566 -0.055977146381246394 0.055459862663136572 0.048284920552407601 -0.053712282877089262 0.038846903059537939 0.088461811434422666 -0.078703512876445947 -0.036598621498074232 0.10271065545867096 -0.0023236449204033496 -0.018393774117637204 -0.0060217540341006093 0.054846401402883785 0.016021612635220454 -0.07161138492697515 0.084417008100151722 0.086774907123632103 -0.092025080325664754 0.047976126662461524 0.0439090074070565 -0.10686054934508245 0.00047394317845507716 -0.079274498053656509 -0.12852238211101949 -0.0045757502672244422 0.090318675192454789 -0.0096663669784499608 0.015342317456058258 0.030904439233563098 -0.096409697960702978 -0.12600646029168491 0.05052895798457481 -0.089093911019107824 0.048249325775014375 -0.017865968893190479 -0.014535862811761245 -0.043298316035191006 0.039427002723006359 -0.075910561084013312 0.086906963880541047
leaf_weight=19.168794050812721 28.942490011453629 21.630994349718094 54.335972800850868 27.330734759569168 51.743826642632484 17.091444879770279 133.6836152523756 19.968014776706696 17.090056627988815 14.251387327909468 18.000121727585793 17.246565908193588 12.386293783783914 12.306807458400728 22.313122525811195 55.957800477743149 13.275502562522886 13.641177892684935 21.197065621614456 24.015065148472786 20.372582003474236 16.575382038950924 17.057426124811172 17.227348789572716 22.868915230035782 21.391588807106018 22.867953568696976 16.799169436097145 14.853843376040457 14.02032245695591 31.503289729356766 14.475355595350264 21.242123916745186 11.86594031751156 17.770249590277672 12.081770047545431 12.082432165741919 16.994564577937126 19.150983110070229 13.003425717353819 13.446411013603209 13.249900028109549 20.76383413374424 16.503782108426094 18.984235465526581 22.140483140945435 14.039546787738798 12.084129527211187 14.373647466301916 24.475728526711464 12.754183456301691 12.316833481192587 12.993345826864241 13.060833320021628 15.99310724437237 12.324678912758827 19.156585857272148 24.306633472442627 19.407698258757591 14.793644592165945 15.831894606351851 26.651264205574989
leaf_count=78 118 88 231 114 215 69 594 86 71 59 74 71 51 50 92 229 55 59 86 103 83 68 71 74 95 87 93 68 61 58 131 59 86 50 74 51 50 70 78 53 55 54 84 67 77 95 58 52 59 101 53 51 53 53 66 51 78 99 80 61 65 113
internal_value=0 0.0210378 0.0386404 0.0521144 -0.0511218 -0.0337137 0.0601799 0.0780968 -0.0255592 0.00716856 0.0408447 0.0173124 -0.0502642 0.0151389 -0.0135645 -0.0320975 -0.0260732 -0.0809237 -0.0116652 0.052549 -0.0535063 -0.0657416 0.0440564 1.75109e-05 -0.0175808 -0.0358176 -0.00588894 0.00653714 -0.013151 0.0889447 0.0634915 -0.0767692 -0.0725254 0.0557515 0.00139301 0.0356378 0.00429415 0.0349834 0.041724 -0.0315446 -0.00534847 -0.0173478 -0.0670626 0.0448581 -0.0375474 -0.0832387 -0.0714698 0.0425873 -0.0559295 -0.0179218 -0.02249 -0.0508797 -0.0738254 0.00771339 -0.0514981 0.00309482 -0.052859 0.0159173 -0.0846693 -0.00517242 -0.0282532 0.0647961
internal_weight=0 953.753 692.247 558.417 385.681 243.466 473.456 245.741 261.505 84.9618 227.715 37.2146 181.856 61.6101 40.3132 244.415 95.0785 142.215 125.06 187.401 119.356 98.983 163.386 34.2848 133.83 86.6544 44.2595 86.7342 81.8029 208.526 74.8429 86.7779 128.574 129.102 66.9491 74.7655 36.0325 43.3396 44.5186 43.0252 30.0218 53.4312 42.3948 33.303 40.1813 107.332 85.1911 23.9501 57.8355 49.1789 57.6311 24.7031 43.3601 25.3676 30.3668 26.345 38.3254 47.1755 71.1515 43.3797 28.5861 38.733
internal_count=5578 3987 2920 2374 1591 998 2022 1061 1067 352 961 157 748 250 166 996 393 593 508 795 488 405 692 145 546 352 180 352 338 904 310 355 534 547 277 316 152 179 181 176 123 217 172 135 163 448 353 102 237 203 238 102 178 103 125 109 156 194 295 179 118 164
is_linear=0
shrinkage=0.1


Tree=7
num_leaves=63
num_cat=0
split_feature=25 25 26 27 25 5 25 22 21 13 22 27 9 27 26 27 26 27 5 15 21 3 27 5 10 22 21 27 21 21 25 10 26 19 6 21 9 0 27 27 8 17 19 19 21 5 27 3 0 27 22 22 26 5 6 0 25 21 22 0 6 2
split_gain=117.126 65.2701 44.4134 50.0656 24.2494 17.4817 16.8773 19.708 18.4076 14.6785 12.6743 11.1404 11.112 11.4471 14.3348 10.8553 10.6437 15.2579 10.5605 10.3856 8.8086 8.56857 8.51136 8.45187 8.09744 8.57184 7.46576 7.00053 10.7028 6.7679 7.6676 7.16795 6.6195 6.56854 6.33963 6.22872 6.15836 6.13356 7.80332 6.58218 9.01617 6.11439 7.0141 6.39989 6.10873 6.10594 10.7718 6.55281 6.05905 5.91536 5.74183 5.73536 5.95118 5.59596 5.48829 5.20725 5.1329 7.59914 7.6392 5.11202 5.10377 5.09941
threshold=1.0675000000000001 0.68250000000000022 0.85650000000000015 0.90450000000000019 0.94550000000000012 0.80150000000000021 1.5585000000000002 1.0265000000000002 0.54750000000000021 0.88550000000000006 1.0515000000000001 1.0545000000000002 1.1275000000000002 0.85250000000000015 0.71550000000000014 0.92250000000000021 0.76750000000000018 0.76050000000000006 0.71650000000000003 -1.3084999999999998 1.0245000000000002 1.8335000000000001 1.3125000000000002 0.87650000000000017 0.60650000000000015 0.88150000000000006 0.64450000000000018 0.81450000000000011 0.9085000000000002 0.96650000000000003 1.2185000000000004 -0.21649999999999997 1.0565000000000002 0.75350000000000017 -0.48199999999999993 0.94650000000000001 0.90750000000000008 0.99550000000000016 0.96650000000000003 1.0885000000000002 1.6300000000000001 0.54350000000000021 1.1165000000000003 -0.9644999999999998 1.0385000000000002 0.70750000000000013 0.75850000000000006 0.80750000000000022 0.95250000000000001 0.73850000000000005 0.88150000000000006 0.95750000000000013 0.68250000000000022 0.96250000000000002 -1.0984999999999998 1.2355000000000003 2.1950000000000007 0.75550000000000017 1.2005000000000001 0.90350000000000008 0.63150000000000006 -0.24149999999999996
decision_type=2 2 2 2 2 2 2 2 2 2 2 2 2 2 2 2 2 2 2 2 2 2 2 2 2 2 2 2 2 2 2 2 2 2 2 2 2 2 2 2 2 2 2 2 2 2 2 2 2 2 2 2 2 2 2 2 2 2 2 2 2 2
left_child=1 9 4 23 5 16 7 8 -2 12 22 18 13 14 33 19 51 -18 -10 -11 36 54 37 26 25 -7 -4 -28 -29 30 31 -20 35 34 -1 -15 -12 38 -5 40 -39 -9 43 -43 -17 46 -16 -47 -22 -6 -32 52 -3 55 -8 -21 57 -56 60 -14 -59 -27
right_child=6 2 3 10 49 24 21 41 11 15 20 -13 59 32 45 44 17 -19 29 53 48 -23 -24 -25 -26 61 27 28 -30 -31 50 -33 -34 -35 -36 -37 -38 39 -40 -41 -42 42 -44 -45 -46 47 -48 -49 -50 -51 -52 -53 -54 -55 56 -57 -58 58 -60 -61 -62 -63
leaf_value=0.02121072000194768 0.054188406863868423 -0.027031850956624488 -0.0024670668748722675 -0.026524794712662093 -0.0423150533631136 0.09611692448329287 -0.008097784077060988 0.072266000103289665 -0.10208223853880141 -0.054967550860594377 0.040380206576274877 -0.11105081202012482 -0.019716801795677766 -0.13660076865648194 -0.083575955611115124 -0.061557467946311874 0.080297743400345609 -0.03774306243730341 -0.060359071559355562 0.0069711528350180976 0.0017672318870311284 -0.15133470904159638 -0.069389750182813612 0.11174279575753301 0.11428876473969729 0.048077743340697227 0.11018894836431117 0.0996528413145088 0.0024747718040334207 0.019457968847040926 -0.032731606669526368 0.04358652609516462 -0.029282853740126142 -0.099465082932004706 -0.061083536666924149 -0.054383324691017226 0.1244047567257566 -0.041026891551000859 0.057211977462180735 -0.078590274617238359 0.062445487399285508 0.036505695580112643 0.066316648508646811 -0.037891354913801176 0.012520412485131267 0.095558164298286952 0.043374368359113499 0.0039770439974175535 0.064222910635325689 -0.12956297358878988 -0.1130229051021686 0.0016600291693588455 -0.11745797232151674 0.083391842602179536 -0.0035524589422550991 0.080957965377059724 -0.11076338693196484 -0.11556195352175971 -0.017555708283702075 0.062824157624849372 -0.04383150530933691 -0.039133516697649716
leaf_weight=14.165468275547026 15.077504485845564 13.884577140212061 12.091926470398901 15.4880104213953 16.712359622120861 13.995551556348799 14.4348177164793 12.953333288431166 25.894237235188484 12.113364979624746 15.084061503410338 34.99137544631958 14.085644498467447 22.259086042642593 14.326880767941477 25.564135849475861 21.784984618425369 22.017884060740471 12.465935200452806 37.784953862428665 38.318066209554672 13.018440738320349 15.099140554666517 105.51609474420547 17.183541253209114 12.10281103849411 43.083660662174225 24.094199240207672 21.399035021662712 21.434515058994293 16.574760496616364 14.180877685546873 18.24768003821373 23.275988176465034 27.600475981831551 15.723437532782553 20.683476641774178 18.169946059584618 39.539554566144943 12.257407054305075 15.695585161447523 16.03023861348629 12.201601475477217 41.489387392997742 19.718521133065224 12.873344421386717 12.528515160083769 19.875776216387749 26.1226746737957 14.524482563138006 19.251822099089622 14.996527224779127 15.295885264873503 25.071536108851433 17.940943688154221 12.713257282972334 27.932550609111786 36.713889256119728 16.380841478705406 16.056473940610886 13.591531008481978 15.031907647848129
leaf_count=58 62 57 52 64 69 61 60 53 106 50 63 146 58 92 59 105 92 91 51 155 158 59 62 493 74 51 192 107 93 88 68 58 74 96 113 64 89 74 163 50 65 66 50 170 80 53 51 81 108 60 80 61 63 105 75 52 121 154 67 66 57 63
internal_value=0 0.0191663 0.0390715 0.0567021 -0.00290143 0.0141765 -0.0464247 -0.0304663 -0.0509649 -0.0155636 0.023111 -0.0619147 -0.0319613 -0.0413289 -0.0244322 0.0104597 -0.0139667 0.0209635 -0.0462561 0.030993 0.0491737 -0.0740696 0.000644675 0.0919669 0.056637 0.0325511 0.0712388 0.0813006 0.0539424 -0.029028 -0.0456635 -0.00504139 -0.0787841 -0.056896 -0.0331724 -0.102566 0.0889695 0.011099 0.0336435 -0.015798 0.00692923 0.00917284 -0.00254908 -0.0171575 -0.0292999 0.010993 -0.0243514 0.0399766 0.0270852 -0.0828835 -0.0758771 -0.0486012 -0.0744316 0.044772 -0.0661491 0.0255978 -0.0735936 -0.0613252 -0.0768681 0.0242521 -0.0961818 -0.00023496
internal_weight=0 944.158 600.173 422.643 177.531 146.294 382.559 242.546 159.871 343.985 216.458 144.794 211.019 180.877 124.646 132.966 87.9799 43.8029 109.802 87.6831 100.208 140.013 116.25 206.185 58.3138 41.1303 100.669 88.5769 45.4932 83.9079 62.4734 26.6468 56.2302 65.0419 41.7659 37.9825 35.7675 101.151 55.0276 46.1229 33.8655 82.6746 69.7212 57.5196 45.2827 59.6045 26.8554 32.7491 64.4407 31.2368 35.8266 44.177 29.1805 75.5697 126.995 50.4982 112.56 84.6272 66.6863 30.1421 50.3054 27.1347
internal_count=5578 3987 2575 1833 742 613 1591 998 659 1412 896 597 865 741 511 547 364 183 451 362 418 593 478 937 249 175 444 392 200 345 257 109 230 267 171 156 152 416 227 189 139 339 286 236 185 244 110 134 266 129 148 181 120 312 534 207 474 353 278 124 211 114
is_linear=0
shrinkage=0.1


Tree=8
num_leaves=63
num_cat=0
split_feature=25 25 26 27 25 5 24 22 24 27 22 9 22 11 25 14 3 21 21 22 17 1 3 5 22 27 11 5 22 5 17 26 27 27 14 9 7 17 15 21 3 27 23 9 7 3 21 6 4 7 15 11 10 25 6 24 23 27 26 10 21 26
split_gain=96.2157 53.9896 34.291 42.2854 20.387 16.8443 14.9505 21.8415 14.2925 19.234 13.3709 12.5837 12.822 12.5061 11.8006 10.8813 9.84691 9.40767 9.21194 8.71164 9.81275 8.62246 8.53461 7.97958 7.86793 9.45087 7.67458 7.66827 7.39875 7.45725 9.28458 7.16626 12.6756 7.09356 6.94497 6.75961 6.67535 6.51162 6.43761 6.33687 6.22873 6.22314 7.29365 6.11355 6.03565 9.38194 7.40036 5.77654 5.76744 9.12388 8.10785 6.14601 8.56633 5.60676 5.51403 5.16622 5.08535 5.05693 4.90105 4.7082 4.65931 4.1514
threshold=1.0675000000000001 0.6695000000000001 0.85650000000000015 0.90450000000000019 0.94550000000000012 0.80150000000000021 1.0265000000000002 1.0675000000000001 1.2485000000000002 1.0835000000000001 1.4150000000000003 1.4075000000000002 0.75750000000000017 -0.5724999999999999 1.4755000000000003 0.77350000000000019 1.7525000000000002 0.61150000000000004 0.99750000000000016 1.0025000000000002 0.70250000000000001 -0.42349999999999993 1.2635000000000003 0.60750000000000004 0.87050000000000016 0.84850000000000014 0.81000000000000016 1.1045000000000003 0.95750000000000013 0.90050000000000019 0.57250000000000012 0.76750000000000018 0.76050000000000006 0.85450000000000015 -0.044499999999999991 0.79050000000000009 -0.38549999999999995 0.7985000000000001 -0.087499999999999981 0.59250000000000014 0.87550000000000006 1.0705000000000002 0.99450000000000005 0.99050000000000005 0.87850000000000017 1.5655000000000001 0.95150000000000012 0.50550000000000017 -0.052999999999999992 -0.94249999999999978 0.59650000000000014 -0.26949999999999996 0.10300000000000001 0.90950000000000009 -0.42449999999999993 0.73550000000000015 0.99350000000000016 0.85950000000000004 1.1015000000000004 0.44550000000000006 0.90950000000000009 0.93950000000000011
decision_type=2 2 2 2 2 2 2 2 2 2 2 2 2 2 2 2 2 2 2 2 2 2 2 2 2 2 2 2 2 2 2 2 2 2 2 2 2 2 2 2 2 2 2 2 2 2 2 2 2 2 2 2 2 2 2 2 2 2 2 2 2 2
left_child=1 11 4 23 5 15 7 53 9 13 -11 12 54 58 26 31 28 -15 -9 20 -19 -7 37 -4 -22 -26 35 44 48 30 -30 -3 -33 -31 -6 -10 -21 -16 -13 -25 -20 -29 -43 59 45 46 -8 56 49 -14 60 -51 -53 -5 -1 -56 -32 -41 -2 -23 -50 -59
right_child=8 2 3 6 34 21 27 18 14 10 -12 38 16 17 22 -17 -18 19 40 36 24 43 -24 39 25 -27 -28 41 29 33 47 32 -34 -35 -36 -37 -38 -39 -40 57 -42 42 -44 -45 -46 -47 -48 -49 50 51 -52 52 -54 -55 55 -57 -58 61 -60 -61 -62 -63
leaf_value=0.074430827460054347 -0.089762083349969393 -0.063142258707262575 0.038497984333954627 -0.029725495195487409 -0.018281863815862932 0.007648453926115753 0.097373860938235537 0.10513663724178327 -0.014204912585522879 -0.12676489564287527 -0.033537898180831617 0.096534201251562798 0.052082842627058104 0.055465630052280258 -0.06423021738199429 0.05074034721372004 -0.092332019626752859 -0.11201738464659272 -0.047217720118970817 -0.036865728162682063 0.022852876685028969 0.011832907745662072 -0.092636908307489427 0.031491297802662764 -0.00099596696187986421 -0.10256639880612786 -0.033310020046651866 0.11729832654110657 -0.097642754911246979 0.08043635469865125 0.0076050876295782237 0.062904808263805997 -0.057730677918199774 -0.0050060000937801512 -0.11408764527310383 0.074621146869860641 0.042343662320327061 0.032712694064346008 -0.0022287738854084508 0.1094329103997289 0.045987941578475681 0.083115612738048669 -0.0096721646061425255 0.14193811619177785 -0.026118310144458201 -0.026937749830442271 0.018424322052851258 0.051329353260759374 -0.11914934540148357 0.0016644683739871693 -0.010709610653640039 -0.11517528642215191 -0.011871772367631012 -0.10375632455130626 0.054362469449849106 -0.027064672427337289 -0.070720332183544621 0.017463717508777631 -0.026712005971913116 0.099046030199080606 -0.04690668746875154 0.088519224656502915
leaf_weight=15.619925186038015 49.342684596776962 35.824503809213638 32.579693749547005 21.56400328874588 12.869914174079897 23.685581356287003 24.844986602663994 13.628006979823111 12.83159254491329 50.681301459670067 22.08951073884964 14.189686819911005 13.706228300929068 14.458017796277998 12.367365002632143 20.678578317165375 23.340770691633224 19.277888268232346 12.66168797016144 19.659429460763931 19.075032100081444 12.202213898301126 22.414149135351181 15.455831006169317 16.843643426895142 20.084263429045677 18.445582255721092 18.512129426002502 13.994285672903059 16.21195687353611 18.879100292921066 16.847142025828362 18.033314600586891 24.252403199672699 18.36099736392498 25.779097750782967 23.189306944608688 15.756084576249121 12.338966593146322 113.81628693640232 16.530845478177071 20.995490729808807 14.201982930302618 12.46671551465988 19.898294895887375 16.980661153793335 22.739435762166977 13.171615049242972 22.893743172287941 21.874258503317833 18.932493627071381 17.213808670639992 15.041360855102537 19.464470654726028 12.243920043110846 21.428094789385796 14.777717456221579 11.515101239085196 16.43519189953804 12.563096538186072 14.634377241134642 28.755098506808281
leaf_count=64 204 149 146 88 53 102 105 59 52 229 92 59 56 60 51 86 97 81 52 81 79 52 96 70 69 86 75 80 57 68 78 72 74 99 76 106 96 64 51 546 68 89 59 55 82 69 94 54 95 90 78 71 62 80 50 89 61 52 70 55 60 135
internal_value=0 0.0175147 0.0351054 0.0507316 -0.00100684 0.0140857 0.0206052 -0.0127061 -0.0422546 -0.054492 -0.0984659 -0.0154018 -0.021273 -0.0383601 -0.0114165 -0.013067 -0.0305002 -0.0206746 0.0372524 -0.0299935 -0.0504815 0.0548179 -0.0466051 0.0838241 -0.0292989 -0.0562379 0.0197519 0.0408199 -0.0241025 -0.00404035 -0.0261721 -0.0317283 0.000535852 0.0292263 -0.0746071 0.0451013 0.0060016 -0.00991822 0.0505977 0.0925341 0.00556182 0.0703623 0.0456763 0.0848252 0.0220342 0.0368743 0.0596458 -0.00481369 -0.0404508 -0.0207989 -0.0640621 -0.0392534 -0.0670024 -0.0648467 0.025324 0.00254411 -0.0267853 0.0986571 -0.0740085 0.0560749 -0.0909778 0.0682012
internal_weight=0 932.421 607.676 424.144 183.532 152.301 222.022 83.849 378.73 271.136 72.7708 324.745 298.216 198.365 107.594 91.3835 248.924 132.588 42.8205 118.13 75.2808 60.9176 50.5376 202.122 56.0029 36.9279 57.0563 138.173 225.583 101.287 60.8227 70.705 34.8805 40.4644 31.2309 38.6107 42.8487 28.1234 26.5287 169.542 29.1925 53.7096 35.1975 37.232 84.4634 64.5651 47.5844 46.8284 124.296 67.8357 56.4606 54.1294 32.2552 41.0285 49.2919 33.672 33.6568 154.086 65.7779 24.7653 37.5281 40.2702
internal_count=5578 3987 2648 1874 774 645 925 347 1591 1147 321 1339 1229 826 444 381 1026 552 179 492 315 264 211 949 234 155 233 578 929 417 250 295 146 167 129 158 177 115 110 803 120 228 148 162 350 268 199 193 512 279 233 223 133 168 203 139 139 733 274 107 155 187
is_linear=0
shrinkage=0.1


Tree=9
num_leaves=63
num_cat=0
split_feature=25 25 5 27 25 25 24 21 13 9 27 5 9 4 3 15 27 5 9 27 5 3 21 24 15 9 7 3 19 24 27 27 17 19 9 21 4 20 24 21 6 13 8 13 10 17 3 17 19 3 7 25 13 25 25 21 13 21 24 11 5 27
split_gain=79.3159 46.4344 27.0798 16.9198 14.1812 13.3 15.9265 13.6843 10.9785 10.7225 10.1921 15.3492 8.71995 8.58564 9.56682 8.55859 8.45677 8.42574 8.26881 9.3549 8.43054 9.98785 10.4599 8.26033 8.08926 7.93142 7.84397 7.72958 6.55807 6.22737 6.10254 5.95558 5.87404 6.23334 5.81201 5.54425 5.46443 5.23023 6.61582 5.02946 4.80621 4.65141 5.92903 7.28185 4.64165 4.62938 4.62191 4.5358 6.52707 5.29438 4.48318 4.71483 4.96923 4.37651 8.06668 4.3458 4.3339 3.98061 4.08069 3.75609 4.31406 3.75281
threshold=1.0565000000000002 0.68250000000000022 0.88150000000000006 0.90250000000000019 0.94550000000000012 1.5585000000000002 1.0755000000000001 1.0535000000000003 0.88550000000000006 1.2475000000000003 0.9405 0.88650000000000018 1.0555000000000001 1.2535000000000003 1.7675000000000003 -0.15649999999999997 0.92250000000000021 0.63450000000000017 1.1275000000000002 1.0105000000000002 1.1135000000000004 0.33650000000000008 0.58250000000000013 1.1525000000000001 -1.3084999999999998 0.88050000000000017 -0.31949999999999995 1.8335000000000001 1.4970000000000001 1.5530000000000002 0.92650000000000021 0.99950000000000017 1.1055000000000004 0.35750000000000004 0.6735000000000001 0.70950000000000013 0.42050000000000004 2.3265000000000007 0.82450000000000012 1.2085000000000001 -0.23249999999999998 1.3085000000000002 1.0000000180025095e-35 1.0375000000000003 -0.24449999999999997 0.88750000000000007 1.0195000000000001 0.64450000000000018 0.93750000000000011 1.5555000000000003 -0.50249999999999984 1.6490000000000002 0.95150000000000012 2.0800000000000005 1.7785000000000002 0.91350000000000009 0.75750000000000017 0.99250000000000005 0.99650000000000005 0.88350000000000006 0.71650000000000003 0.71050000000000002
decision_type=2 2 2 2 2 2 2 2 2 2 2 2 2 2 2 2 2 2 2 2 2 2 2 2 2 2 2 2 2 2 2 2 2 2 2 2 2 2 2 2 2 2 2 2 2 2 2 2 2 2 2 2 2 2 2 2 2 2 2 2 2 2
left_child=1 8 4 28 9 6 7 10 18 47 11 59 17 14 15 46 24 -6 19 20 21 -1 -23 44 -10 31 -27 29 -4 50 -9 -8 33 37 -19 -13 -20 38 -24 -18 -28 42 43 -26 -17 -12 -5 48 56 61 53 -52 -53 54 -7 -35 -3 58 -54 60 -2 -49
right_child=5 2 3 13 12 27 25 30 16 -11 45 35 -14 -15 -16 23 39 34 36 -21 -22 22 32 -25 41 26 40 -29 -30 -31 -32 -33 -34 55 -36 -37 -38 -39 -40 -41 -42 -43 -44 -45 -46 -47 -48 49 -50 -51 51 52 57 -55 -56 -57 -58 -59 -60 -61 -62 -63
leaf_value=0.050160363753768637 -0.12939845740111258 0.042705159442511111 0.086527768642537223 0.060331896372623907 -0.11247368703076366 -0.071467144708383792 0.011540068639431236 0.049990854038075627 -0.048044220636979801 0.089056111197903839 -0.15123755583971804 0.063868541429787956 0.038355148422920836 -0.034531012593252405 -0.020730301911104414 -0.049004823406684342 -0.046279697724437158 0.030432952934350554 -0.016016883435472796 -0.09316626090449999 0.047188588073115156 0.044706285146165627 0.023963641616106632 0.068056403373716753 0.085168356931471498 -0.013019660320358593 0.01590813773348556 -0.14025757829102076 0.0038582434986152627 -0.0037096095109184334 -0.032367277830867451 -0.066706020331935706 -0.0010497968756253413 -0.066205878249669461 -0.05354714030001885 -0.020000091573039305 0.070165052124405755 -0.08027712452839314 -0.061299511163263279 0.02826620345096123 0.093182749530046391 0.079828067509688572 -0.033131945109791415 -0.00017738102855134372 0.035038850278609007 -0.076471526365667508 0.1278116734682537 -0.0011890021615579187 -0.069828227666768494 -0.028164720539009504 -0.031522544384500611 -0.14281758079225665 -0.095339896908681776 -0.093812846439939868 0.033894178175150648 -0.1357570006604828 -0.021460134713631767 -0.12261804455105976 -0.0099349013277752404 -0.030958460363836312 -0.060524992564635685 0.040658677054394153
leaf_weight=12.896882638335226 17.565458208322525 21.733524680137634 131.3044727742672 24.93672601878643 14.610140413045881 14.554965406656267 19.825551390647888 18.526981174945831 12.051206231117247 23.105605781078339 13.689576983451841 12.191304638981817 14.991649597883223 17.484927445650101 20.766782149672508 14.82901054620743 32.412007853388786 13.164964333176611 16.910421490669254 24.168560892343521 14.191589146852492 12.49136810004711 18.460290476679802 25.269178554415703 20.609649837017059 23.179579108953476 13.326784402132033 11.83137486875057 10.352456718683241 19.449265792965889 17.49081464111805 19.097811311483383 19.117065742611885 22.979371145367622 22.032677993178368 22.29974177479744 13.023160159587858 21.493885517120361 17.948538601398468 12.556800797581671 20.322822019457817 21.244613990187645 13.376367300748823 19.414811789989471 11.801126822829245 20.963747054338455 17.117800757288933 26.616841867566109 12.832433834671972 16.077931225299835 14.494923099875448 15.725339099764822 10.60858626663685 10.64464198052883 14.51156537234783 14.750593349337576 20.413319274783134 11.516703411936758 11.836936473846434 12.906678482890127 18.858765140175819 109.96015401184559
leaf_count=53 73 94 640 108 61 62 81 77 50 104 61 51 65 73 86 62 134 55 70 101 59 52 76 109 86 96 55 59 50 80 72 78 79 97 93 92 54 89 74 51 84 89 56 81 50 92 73 111 55 67 61 69 50 50 62 61 88 50 50 53 78 486
internal_value=0 0.0163565 0.0338191 0.0564737 0.0128262 -0.0377729 -0.0241201 -0.043981 -0.0128801 0.0244347 -0.0603907 -0.041532 -0.0285093 0.0307445 0.0406934 0.0542699 0.00972542 -0.0486349 -0.02716 -0.0353165 -0.026257 -0.0336947 -0.0421941 0.0271012 0.0279779 0.00792459 0.0317434 -0.0630481 0.0804862 -0.055642 0.00999643 -0.0268515 -0.0516538 -0.0617696 -0.0221361 0.00964436 0.0214782 -0.0411609 -0.0180687 -0.025464 0.0625785 0.0402513 0.0245064 0.0437694 -0.0117609 -0.106007 0.0877987 0.0172436 -0.00738469 0.0261135 -0.0653639 -0.0817037 -0.0963426 -0.038955 -0.0188651 -0.093397 0.0116275 -0.0748236 -0.0503005 -0.0773134 -0.093739 0.0325032
internal_weight=0 909.499 569.402 273.862 295.539 385.42 250.246 154.493 340.097 230.74 118.475 83.8219 64.7994 132.206 114.721 93.9538 131.665 49.8078 208.432 178.498 154.33 140.138 127.241 51.8993 86.6966 95.7525 56.8292 135.174 141.657 123.343 36.0178 38.9234 114.75 95.6327 35.1976 34.491 29.9336 57.9027 36.4088 44.9688 33.6496 74.6454 53.4008 40.0245 26.6301 34.6533 42.0545 207.634 54.9793 152.655 103.894 64.1825 49.6876 39.7112 29.0665 37.73 42.1468 33.9622 22.4455 49.3309 36.4242 136.577
internal_count=5578 3942 2530 1251 1279 1636 1043 649 1412 1005 500 347 274 561 488 402 547 209 865 741 640 581 528 221 362 394 235 593 690 534 149 159 476 397 148 143 124 239 150 185 139 312 223 167 112 153 181 901 237 664 454 280 219 174 124 158 182 150 100 204 151 597
is_linear=0
shrinkage=0.1


Tree=10
num_leaves=63
num_cat=0
split_feature=25 25 5 27 26 25 27 25 24 26 3 24 21 9 9 26 26 6 24 25 14 10 27 13 21 14 3 5 10 25 25 18 21 5 24 5 26 24 1 13 24 24 24 14 10 21 10 14 9 27 14 14 14 16 25 5 13 24 25 5 10 9
split_gain=61.3567 31.4502 25.1624 22.1702 21.1068 17.9698 16.9493 14.5183 13.1215 12.6977 12.3985 11.6376 14.3736 11.585 12.5611 10.4113 9.74228 9.12505 8.46725 7.84798 7.32047 7.31605 6.57433 9.32254 8.49807 7.30942 6.52659 6.95405 8.44964 6.79547 6.46211 9.74409 6.48981 6.36153 6.35704 6.24341 11.3443 6.92547 5.85357 8.55777 5.71207 7.10259 5.63713 5.6029 5.39468 5.13786 4.91581 4.95011 5.16978 4.91357 4.88152 4.84861 5.18736 4.75561 4.61629 6.24773 4.60462 4.6004 4.49625 8.97191 5.41318 4.35541
threshold=1.2815000000000003 0.59250000000000014 0.81250000000000011 0.90650000000000019 0.77650000000000008 0.94550000000000012 0.82250000000000012 1.0025000000000002 0.95950000000000013 0.97650000000000003 1.8335000000000001 0.74850000000000005 1.3625000000000003 1.0415000000000003 0.68950000000000011 0.89450000000000018 0.87750000000000006 -0.018499999999999996 0.63550000000000006 0.76850000000000007 -0.37849999999999995 -0.6974999999999999 0.84050000000000014 1.2465000000000002 0.95150000000000012 -0.62549999999999983 2.0310000000000001 1.2405000000000002 -0.35349999999999993 0.99250000000000005 0.77550000000000019 0.30450000000000005 0.94650000000000001 1.1425000000000003 1.0405000000000002 1.1885000000000001 0.99350000000000016 1.2565000000000002 0.66850000000000021 0.68550000000000011 0.96550000000000014 0.82250000000000012 1.4775000000000003 -0.083499999999999991 -0.79799999999999993 0.87050000000000016 -0.16149999999999998 -0.48949999999999994 0.83350000000000002 0.80650000000000011 -0.42049999999999993 0.33250000000000007 0.76250000000000007 1.9110000000000003 1.9045000000000003 1.4930000000000001 0.73250000000000004 0.85050000000000014 1.5035000000000003 0.88450000000000017 0.7915000000000002 0.81850000000000012
decision_type=2 2 2 2 2 2 2 2 2 2 2 2 2 2 2 2 2 2 2 2 2 2 2 2 2 2 2 2 2 2 2 2 2 2 2 2 2 2 2 2 2 2 2 2 2 2 2 2 2 2 2 2 2 2 2 2 2 2 2 2 2 2
left_child=1 22 4 7 18 6 46 16 11 20 35 -5 33 14 17 -8 21 -7 -3 57 -9 -4 23 40 34 -26 27 29 -29 44 31 -17 61 -13 -24 36 56 54 39 -20 41 43 -30 -1 -10 -43 -6 -48 -49 -23 -16 -45 -53 -46 55 -37 -2 -18 59 -38 -60 -32
right_child=10 2 3 8 5 13 15 9 26 -11 -12 12 -14 -15 50 30 19 -19 38 -21 -22 49 24 -25 25 -27 -28 28 42 -31 32 -33 -34 -35 -36 37 58 -39 -40 -41 -42 45 -44 51 53 -47 47 48 -50 -51 -52 52 -54 -55 -56 -57 -58 -59 60 -61 -62 -63
leaf_value=0.019442701563491309 -0.06018476178481566 0.032923343861405531 -0.0037662091939601886 0.04638644978236333 0.096423535941526334 -0.045869166025437585 -0.060948898552347544 -0.088888286360378252 -0.02001414855302697 0.082502317163793096 -0.12127858576106745 -0.039023698711656278 0.041328945413549256 0.038551832786711211 -0.023702250840665309 0.037147923782301057 0.091743531004630008 0.07627804967020041 0.014758200417870435 0.10795327478700555 0.0081467424858561767 0.074239410885348453 -0.10453899093994423 0.072039493039202332 0.0526829342334049 -0.036992385761961073 -0.030882750389860436 0.11944544124252361 0.066021039415656499 -0.021555325113350086 0.028625891940337708 -0.083397154034957857 -1.5156078786615397e-05 -0.12206785478011895 -0.028903405393558818 -0.048856645230707776 -0.098520475053567161 0.016614329596395427 -0.10985505095864914 -0.068981889028058671 0.042321449693037763 -0.11347159503464491 -0.018896086192328434 -0.076751996149309901 0.032347611617324988 -0.030521371760652245 -0.010869182262128484 0.029447863344891901 0.10665159468158868 0.0029193243868713024 -0.096806980133154197 0.036308372248461451 -0.04270022717840774 0.10518803276240879 -0.080254833544088897 0.040740740363638228 0.012932203984212121 0.0019161354875689319 -0.10135024793633228 0.0068027368053302341 -0.028944345659146831 0.10709957153334018
leaf_weight=38.793757662177086 12.129065111279486 12.270435184240339 22.218032896518707 17.33598630130291 32.663635671138763 12.405471608042719 19.530304789543152 11.795060902833937 11.833342850208281 16.130460008978844 19.566387474536896 18.408539041876793 13.09047247469425 23.366225153207779 12.988727137446402 14.496871426701547 10.118458315730097 12.063341021537779 18.1602413803339 72.693110704421997 22.809342384338379 57.317642644047737 26.565072372555733 13.152409166097639 12.681981310248373 32.08655734360218 16.214865386486053 18.331202581524849 21.479674220085144 28.303830832242966 12.503025367856027 12.477071449160574 21.076243847608566 18.489677220582962 19.103184759616852 23.213211894035339 14.710864171385763 35.434699445962906 16.201092675328255 37.207088813185692 14.854168832302092 12.731270730495455 12.290645018219946 15.924868971109388 26.694264441728592 18.058478981256485 11.574491322040556 19.062445774674416 15.914894878864287 11.617910534143446 30.778339415788651 14.188719123601912 20.05642269551754 13.494096159934996 18.82152633368969 11.708113044500349 29.712227359414101 13.060370430350302 49.828010857105255 17.964850246906281 13.024215728044508 16.284170985221863
leaf_count=161 50 50 99 74 147 52 81 50 50 72 96 78 54 98 55 61 51 50 76 386 96 262 114 55 52 132 66 79 93 116 55 52 89 79 79 100 64 146 68 157 61 54 53 67 113 75 51 86 72 53 128 58 83 58 90 51 123 61 221 75 58 75
internal_value=0 0.0106043 0.0200518 0.0356049 -5.17946e-05 0.0136842 0.0324159 0.0566723 0.0124115 0.00922796 -0.0449054 -0.0242139 -0.048698 -0.0222208 -0.0430313 0.0042467 0.0695427 0.0143505 -0.0438268 0.0917973 -0.0249281 0.0461361 -0.0213142 -0.00831699 -0.0425498 -0.0115893 0.0290003 0.0363326 0.0647859 0.017877 0.0208179 -0.0186114 0.0421475 -0.0806371 -0.0729004 -0.0383092 -0.0516849 -0.0177053 -0.0569857 -0.0415155 -0.0161686 -0.0234236 0.0351156 -0.00909645 0.0393313 -0.0648205 0.0666844 0.0458176 0.064576 0.0622196 -0.0751117 -0.0311642 -0.00996476 0.0568053 -0.0403336 -0.0188172 -0.00826314 0.0411293 -0.0707036 -0.0406146 -0.0863463 0.0730164
internal_weight=0 1042.95 804.751 453.727 351.024 267.185 175.583 237.76 215.967 50.7349 246.113 67.3247 49.9887 91.6021 68.2359 96.3677 187.026 24.4688 83.8389 95.8719 34.6044 91.1536 238.197 147.76 90.4368 44.7685 148.642 132.427 52.1015 80.3255 76.8374 26.9739 49.8634 36.8982 45.6683 226.547 137.369 89.1776 71.5684 55.3673 134.608 119.754 33.7703 88.9638 52.0217 30.7897 79.2155 46.5518 34.9773 68.9356 43.7671 50.17 34.2451 40.1884 53.7429 34.9213 41.8413 23.1788 95.5279 32.6757 62.8522 28.7872
internal_count=5611 4537 3546 2043 1503 1152 769 1130 913 218 1074 285 211 383 285 413 912 102 351 498 146 414 991 614 377 184 628 562 225 337 332 113 219 157 193 978 591 387 301 233 559 498 146 369 221 129 356 209 158 315 183 208 141 171 241 151 173 112 418 139 279 130
is_linear=0
shrinkage=0.1


Tree=11
num_leaves=63
num_cat=0
split_feature=25 25 5 27 0 26 9 27 25 26 5 25 3 26 26 24 22 27 24 22 0 18 17 22 9 9 26 25 27 2 24 6 25 7 0 27 27 5 21 22 0 1 18 21 21 2 25 15 24 5 20 5 25 24 0 9 1 22 3 18 1 6
split_gain=50.5702 25.8627 20.9294 19.3724 22.4871 17.5791 15.8383 18.2988 12.7576 12.3787 12.0003 11.509 10.944 10.7144 10.1146 10.0223 11.7636 9.37822 8.52941 8.41204 8.07535 7.95402 7.91473 7.74172 7.63613 7.3898 7.33885 8.4594 7.19884 9.53221 7.06916 6.90568 6.88425 6.27857 6.19414 6.10383 6.06615 8.6974 7.22616 9.95609 7.90396 6.98927 6.08591 5.94172 5.69106 5.93277 8.20923 5.6552 7.51172 5.8061 5.4591 5.19196 5.06129 5.05005 5.03874 5.81597 4.8178 7.60313 4.60915 4.60283 6.08499 5.31231
threshold=1.2815000000000003 0.59250000000000014 0.80850000000000011 0.90650000000000019 1.7460000000000002 0.77650000000000008 1.2745000000000002 0.85950000000000004 0.94850000000000001 0.96750000000000014 1.9180000000000001 0.98450000000000004 1.8335000000000001 0.90950000000000009 0.89450000000000018 1.0305000000000002 1.0215000000000003 0.79950000000000021 1.0755000000000001 1.0465000000000002 0.99950000000000017 -0.9365 0.81650000000000011 0.74450000000000005 0.68650000000000022 0.92650000000000021 0.87750000000000006 0.79550000000000021 0.87250000000000016 0.59600000000000009 0.84550000000000003 -1.0064999999999997 0.96550000000000014 0.17850000000000002 0.72550000000000014 0.80650000000000011 0.95350000000000013 1.3365000000000002 0.82050000000000012 0.81650000000000011 0.95250000000000001 0.92650000000000021 0.48850000000000005 0.70050000000000001 1.3125000000000002 0.27900000000000008 1.0115000000000001 -1.3264999999999998 1.2565000000000002 1.1425000000000003 1.0000000180025095e-35 1.0855000000000004 0.75550000000000017 1.1095000000000004 1.3745000000000003 1.5135000000000003 0.29150000000000004 0.91550000000000009 0.44850000000000007 -0.091499999999999984 0.45550000000000007 -0.18349999999999997
decision_type=2 2 2 2 2 2 2 2 2 2 2 2 2 2 2 2 2 2 2 2 2 2 2 2 2 2 2 2 2 2 2 2 2 2 2 2 2 2 2 2 2 2 2 2 2 2 2 2 2 2 2 2 2 2 2 2 2 2 2 2 2 2
left_child=1 36 5 8 10 20 7 11 26 50 15 14 19 51 17 16 25 59 -6 23 34 -21 -13 -2 -11 -5 35 30 29 -25 -28 -17 -26 -15 52 58 37 38 43 40 -40 56 53 -1 45 -33 -47 -30 -49 -50 -9 -10 -3 -38 55 -23 57 -41 -4 61 -61 -7
right_child=12 2 3 4 18 6 -8 9 13 24 -12 22 -14 33 -16 31 -18 -19 -20 21 -22 54 -24 28 32 -27 27 -29 47 -31 -32 44 -34 -35 -36 -37 42 -39 39 41 -42 -43 -44 -45 -46 46 -48 48 49 -51 -52 -53 -54 -55 -56 -57 -58 -59 -60 60 -62 -63
leaf_value=-0.010457533268576721 0.034145309468122519 -0.0029900047134575466 0.10265864731524824 -0.0011559925724545399 -0.12768132111120378 -0.03599486573922317 0.090406840264092653 -0.043581360940735975 -0.05222606242491732 0.043384941285465939 0.11055605901369403 -0.073404183344217874 -0.11455936225708262 0.091841622630180877 0.094428598928285715 -0.031137822185192385 0.026223724290586531 -0.04146220194303149 -0.023142888175538362 -0.060935909178214037 -0.083952414863980876 0.0044797521885277967 0.027579189902495384 -0.056625728685107818 0.0051958544170002691 -0.10019480716775189 0.10353703944414497 0.11425976351439314 -0.0016553292756065587 0.045825329722761349 0.0050522489124652254 0.089127598562363228 -0.069206673713265041 0.0084347912531604289 0.02615818745902488 -0.014321036073037703 -0.10913867710722987 0.0664018212886862 -0.0036425975460314497 -0.06371799200148423 0.10524159243967911 -0.076090547666982075 -0.0060362159981028436 -0.080096535413777648 0.0056163632321619018 0.074072157485458243 -0.034347872862601492 -0.099143210194680559 -0.087729248113791236 0.0039222910385983151 -0.12621531466942418 0.029344050661951823 -0.08049606651340821 -0.031813017251792634 -0.044941807646688592 0.085417835396047984 0.039986716396765626 0.010593025931608399 0.043910945134078568 0.11255112636544487 0.018227811989467303 0.061173164174125882
leaf_weight=22.253717750310898 10.396523356437681 15.918826103210447 17.916155025362968 13.000441774725916 13.262141615152357 11.251993611454965 23.690068542957306 20.394032597541809 22.08037631213665 24.163010239601135 14.863347783684729 15.483620002865793 18.688526839017868 20.173887580633163 30.88613186776638 13.19779948890209 34.784777417778969 16.027930811047554 18.967379435896873 20.976585760712624 28.214597463607788 31.95575051009655 15.561915323138235 24.872569769620895 30.944813653826714 17.917168572545052 12.709405794739725 50.450042366981506 10.754273012280462 14.30447183549404 17.087207764387131 35.838772237300873 20.791748031973839 16.331397756934166 20.03156889975071 13.596669763326643 18.807741090655327 13.610587388277052 13.412152081727983 23.284031450748444 13.255813062191008 17.34789402782917 21.037974461913109 27.260631009936333 24.7585708796978 16.451350331306461 12.135035291314123 57.946842670440674 12.278215035796167 15.815151423215864 13.149530246853827 12.067882552742956 17.898639932274818 15.330258265137671 12.496757149696348 12.29340924322605 17.673726826906204 33.690714314579964 52.456161439418793 16.419985294342045 11.722101047635077 11.253933027386664
leaf_count=94 44 67 83 55 57 51 107 87 94 101 64 64 96 94 148 56 147 68 80 89 119 134 65 103 130 76 68 288 49 59 82 155 87 75 84 61 81 58 56 97 54 72 88 115 105 72 50 278 52 66 55 54 77 63 53 51 73 140 244 74 52 50
internal_value=0 0.009691 0.0183451 0.0325368 0.0108608 -0.000232217 0.0124292 0.00466909 0.0523954 -0.0253858 0.0244294 0.0302454 -0.0410392 0.016864 0.0471204 0.0168133 -0.0136684 0.0252059 -0.0661595 -0.0349078 -0.0406156 -0.00831965 -0.0227852 -0.0490264 -0.00302811 -0.0585503 0.0676827 0.0893076 -0.0553858 -0.0192184 0.0470598 0.0363747 -0.0247048 0.0545278 -0.0179089 0.0470165 -0.0193007 -0.010486 -0.0167085 -0.00331872 0.0504803 -0.018914 -0.0483425 -0.048798 0.0463655 0.0620254 0.0280474 -0.0700243 -0.0785698 -0.036134 -0.075975 -0.0233995 -0.0440118 -0.0744143 0.0111304 0.0269662 -0.00562652 -0.0197759 0.0588676 0.0463035 0.0732624 0.0125933
internal_weight=0 1030.82 793.85 450.046 215.177 343.804 261.741 238.051 234.869 109.443 182.947 128.608 242.779 70.6535 97.5621 168.084 65.7024 66.6759 32.2295 224.091 82.0636 77.7225 31.0455 146.368 75.8996 30.9176 164.216 80.2467 135.972 39.177 29.7966 102.382 51.7366 36.5053 53.849 83.969 236.965 181.789 168.179 118.664 26.668 91.9964 55.176 49.5143 89.1837 64.4252 28.5864 96.7945 86.0402 28.0934 33.5436 34.1483 33.8175 34.138 56.7459 44.2492 74.6485 56.9747 70.3723 50.648 28.1421 22.5059
internal_count=5611 4537 3546 2060 917 1486 1139 1032 1143 460 780 572 1074 317 443 716 278 295 137 978 347 327 129 651 318 131 826 438 607 162 150 438 217 169 228 388 991 759 701 492 110 382 232 209 382 277 122 445 396 118 142 148 144 144 238 185 310 237 327 227 126 101
is_linear=0
shrinkage=0.1


Tree=12
num_leaves=63
num_cat=0
split_feature=25 25 5 0 25 26 9 25 5 21 22 24 24 24 9 24 12 11 14 25 22 21 23 21 0 6 21 0 4 18 9 2 10 0 6 26 13 9 24 14 10 21 25 24 0 25 10 26 11 6 10 22 16 26 24 21 5 10 24 21 17 6
split_gain=41.7252 21.2842 17.409 15.7778 15.3154 14.2142 13.4318 12.9268 10.2242 9.98386 8.86634 13.1849 8.6243 8.25193 8.18701 10.1394 7.96104 7.47441 8.34949 7.35389 8.7114 7.02019 8.1004 7.01814 6.89941 6.79838 6.671 6.60048 6.40976 6.27954 6.55684 6.24169 6.54599 5.82572 5.66242 6.54643 5.66153 6.35758 5.52109 8.83804 8.11242 6.07481 5.66584 5.47859 5.87987 5.37588 8.29762 5.22816 5.19518 5.26919 5.19016 5.14984 4.81761 4.67804 4.63315 4.33507 4.28876 4.27091 5.09636 4.24057 4.00418 3.80881
threshold=1.2815000000000003 0.59250000000000014 0.81250000000000011 1.7460000000000002 1.0025000000000002 0.77650000000000008 1.2745000000000002 0.94550000000000012 1.1885000000000001 1.0715000000000001 0.97150000000000014 1.0335000000000003 0.75750000000000017 0.75750000000000017 0.47750000000000004 0.98550000000000015 1.6610000000000003 0.50700000000000012 0.12950000000000003 2.1950000000000007 1.0465000000000002 1.0095000000000003 1.0795000000000001 1.1465000000000003 0.99950000000000017 -0.76549999999999996 0.81850000000000012 2.4065000000000003 -1.3674999999999997 -0.8284999999999999 1.0975000000000004 -0.20349999999999999 -0.045499999999999992 0.65650000000000019 0.85950000000000004 0.97650000000000003 0.74050000000000005 1.0285000000000002 0.68650000000000022 0.57550000000000001 -0.8899999999999999 0.90950000000000009 0.30650000000000005 0.81150000000000022 0.71250000000000002 0.46950000000000003 -0.07149999999999998 0.60750000000000004 0.25550000000000006 1.0000000180025095e-35 0.20550000000000002 0.86250000000000016 1.0000000180025095e-35 0.99550000000000016 0.89350000000000007 1.3625000000000003 1.1965000000000001 -0.48449999999999993 0.98050000000000004 1.0835000000000001 0.74050000000000005 0.46750000000000008
decision_type=2 2 2 2 2 2 2 2 2 2 2 2 2 2 2 2 2 2 2 2 2 2 2 2 2 2 2 2 2 2 2 2 2 2 2 2 2 2 2 2 2 2 2 2 2 2 2 2 2 2 2 2 2 2 2 2 2 2 2 2 2 2
left_child=1 38 5 4 21 24 7 9 34 10 14 -12 -5 -9 -7 16 -16 18 -10 20 26 25 23 -23 43 36 31 56 -27 -22 -31 -2 -33 -15 35 -6 -4 -38 39 40 -1 54 -43 44 -3 59 -47 -42 49 -25 -11 -28 -37 -53 -40 -32 -14 -35 -59 -44 -56 -30
right_child=19 2 3 12 8 6 -8 13 17 50 11 -13 27 33 15 -17 -18 -19 -20 -21 29 22 -24 48 -26 28 51 -29 61 30 55 32 -34 57 -36 52 37 -39 41 -41 47 42 45 -45 -46 46 -48 -49 -50 -51 -52 53 -54 -55 60 -57 -58 58 -60 -61 -62 -63
leaf_value=-0.038902013633949059 -0.058083053443910806 -0.026704407591385489 0.080540250860493851 0.061895803750589173 -0.043858831221706501 0.086544973799017738 0.083802337996847054 0.045334968006277142 0.068866564819969042 -0.07135191662438603 0.10794604139972513 -0.0097506321595206627 0.013028328501170831 -0.082161175083875451 -0.076849772003902569 0.037396844494595113 0.019539449970196243 0.10276498094679908 -0.049789733846996892 -0.082430733471788059 -0.04793703181736822 -0.041472781078116354 0.088921392461688176 0.10405073966138854 -0.076869567436551794 0.01256156157344003 -0.016937807730279517 -0.10205222609531012 0.090390786072626392 -0.026835297639983866 0.079921250753061918 0.064592256854813623 -0.030846654168948273 -0.065967150271547412 -0.079123572652309584 0.057512171356169761 -0.045669238429823553 0.048232204307427487 -0.065695050222610574 -0.054731304667294457 0.0070789328006415422 0.049072285425646567 -0.019887795682940121 -0.060689812482161071 0.054937974114503046 -0.038582015664513282 0.050278551515524177 0.089909756030674609 -0.0061225796404630987 0.015255363950619378 0.015642922658559738 -0.034358916928829183 -0.020399432799804166 -0.091357429624902536 -0.060183724739558866 0.001362512387537808 -0.063299791108294146 0.039161967684627846 -0.042272913341207558 -0.094798566019896294 0.0056863892056399391 0.055804220771322188
leaf_weight=11.834943398833273 20.309682011604309 21.589624211192131 12.401032477617262 10.25618030130863 24.235485747456551 13.215551987290381 23.315242290496826 12.903772637248037 12.348305761814119 15.658204674720766 29.230628609657288 14.11373759806156 19.588925197720531 23.53153058886528 20.897739619016647 37.260102033615112 14.523849457502363 14.616115123033522 11.410053461790083 31.656663611531258 20.701441094279289 18.971769824624062 16.15576446056366 13.403933569788935 27.757124125957489 17.340289935469627 20.082275077700615 12.311712592840193 83.189023837447166 19.645633608102798 17.252315014600757 13.635861396789553 15.194892778992651 14.286665588617323 12.386309489607809 18.888686120510101 14.905125409364702 13.966210156679152 48.556743234395981 16.090791538357735 12.410742834210394 14.58028571307659 18.423458695411686 18.054644733667374 14.915925085544584 21.856374397873878 20.239232257008553 19.741309240460396 21.649846330285072 13.327793911099432 12.202246963977812 20.46107742190361 13.687584042549132 48.602224364876747 14.922500193119047 11.848567277193068 11.793335661292074 16.056696787476543 14.739330634474753 12.811797127127646 24.186269909143448 51.583331748843193
leaf_count=50 90 91 61 50 101 61 108 54 55 65 140 62 90 99 92 165 65 65 50 158 88 87 73 60 119 86 89 53 416 83 72 60 69 60 52 79 70 70 209 67 52 61 77 79 62 91 84 82 96 59 51 85 57 230 63 50 53 69 61 53 102 260
internal_value=0 0.00886459 0.0167975 0.0300133 0.0371197 -3.31908e-05 0.011358 0.00427961 0.00509821 0.0210456 0.03275 0.0696218 -0.0206288 -0.0280318 0.0141442 0.000979776 -0.0373275 0.0464972 0.0118814 -0.0375328 -0.0306908 0.0495599 0.0253294 0.0100759 -0.0362803 0.0600233 -0.0452029 -0.0399996 0.0697898 -0.00179403 0.0178018 -0.0156203 0.0142924 -0.0418294 -0.01786 -0.00450311 0.0240281 -0.000245386 -0.0174828 0.00868404 0.0318819 -0.0264364 -0.00786155 -0.0156308 0.00665413 -0.0191816 0.00414144 0.0579369 0.0302896 0.0597795 -0.0332501 -0.06151 0.024776 -0.0744707 -0.0450633 0.0479357 -0.0156555 -0.0207777 0.000186303 -0.050614 -0.0194473 0.077153
internal_weight=0 1018.32 782.669 438.417 384.467 344.253 261.935 238.62 107.573 157.102 129.242 43.3444 53.9502 81.518 85.8972 72.6817 35.4216 38.3745 23.7584 239.391 207.734 276.894 83.5091 67.3533 82.3173 193.385 138.286 43.694 152.113 69.448 48.7465 49.1404 28.8308 68.6142 69.1981 56.8118 41.2724 28.8713 235.654 60.0778 43.987 175.577 87.9111 54.5602 36.5055 73.3309 42.0956 32.1521 48.3816 26.7317 27.8605 89.1456 32.5763 69.0633 87.6655 29.1009 31.3823 45.0827 30.796 31.2353 39.1088 134.772
internal_count=5611 4537 3546 2043 1797 1503 1152 1044 459 701 585 202 246 343 383 322 157 170 105 1074 916 1338 375 302 351 963 623 196 762 293 205 219 129 289 289 237 201 140 991 251 184 740 366 232 153 305 175 134 215 119 116 404 136 315 374 122 143 190 130 130 165 676
is_linear=0
shrinkage=0.1


Tree=13
num_leaves=63
num_cat=0
split_feature=25 26 27 22 25 25 26 27 3 27 25 9 12 11 0 27 25 17 0 11 9 0 27 3 1 15 25 23 18 15 9 22 22 1 13 9 0 23 3 26 1 9 27 21 25 7 10 6 22 22 25 25 27 7 23 27 9 25 8 22 1 23
split_gain=34.341 18.0523 29.6166 14.1505 10.4271 10.7112 11.0574 17.3308 9.68688 8.478 8.70358 8.57423 8.39607 8.70831 8.36026 8.10083 16.5823 10.877 8.08802 8.09887 7.76483 7.62379 7.33112 8.06534 8.29613 7.43739 7.28325 7.11324 6.76763 6.35152 6.91245 6.34104 13.484 6.55752 6.25604 6.04111 7.72018 6.94141 6.80282 6.75484 6.2277 5.9583 5.68216 5.62486 7.1458 5.41331 5.731 5.24039 9.37055 5.85457 5.22396 5.20732 5.07334 4.98505 4.89279 4.86477 7.85709 8.34517 6.01754 6.93782 6.89875 5.25347
threshold=1.2815000000000003 0.81150000000000022 0.90650000000000019 1.0515000000000001 1.1045000000000003 0.70450000000000002 0.86350000000000005 0.7965000000000001 1.8335000000000001 0.75250000000000006 0.8135 1.1475000000000002 1.6610000000000003 0.15150000000000002 1.0575000000000003 1.0855000000000004 0.77150000000000019 0.97950000000000015 0.53450000000000009 0.098500000000000018 0.74550000000000016 1.1945000000000003 0.9405 1.7675000000000003 -0.10349999999999998 -0.67449999999999999 0.93050000000000022 1.1355000000000002 0.32450000000000007 1.3255000000000001 1.7855000000000003 0.95950000000000013 0.8135 0.47850000000000004 0.76150000000000018 0.90750000000000008 0.59450000000000014 0.98850000000000005 1.0025000000000002 1.0535000000000003 -0.23149999999999998 0.86250000000000016 0.76450000000000007 0.95150000000000012 0.89250000000000018 -0.70249999999999979 0.43550000000000005 0.21000000000000002 0.97550000000000014 0.86650000000000016 0.57550000000000001 0.89750000000000008 1.0615000000000003 0.65550000000000008 0.99050000000000005 0.97450000000000003 0.59350000000000003 0.77550000000000019 1.6300000000000001 1.7940000000000003 -0.11649999999999999 0.99050000000000005
decision_type=2 2 2 2 2 2 2 2 2 2 2 2 2 2 2 2 2 2 2 2 2 2 2 2 2 2 2 2 2 2 2 2 2 2 2 2 2 2 2 2 2 2 2 2 2 2 2 2 2 2 2 2 2 2 2 2 2 2 2 2 2 2
left_child=1 9 4 14 5 31 7 51 21 11 27 12 18 -14 22 16 -16 -18 19 -1 -15 35 -4 24 25 -24 -17 34 -27 30 55 32 -3 -33 -11 36 -2 45 39 -39 -40 47 -8 -44 -45 -37 -47 48 -20 -49 -34 -7 -25 -6 -38 -5 -57 61 59 60 -59 -58
right_child=8 2 3 29 53 6 42 -9 -10 10 -12 -13 13 20 15 26 17 -19 41 -21 -22 -23 23 52 -26 28 -28 -29 -30 -31 -32 33 50 -35 -36 37 54 38 40 -41 -42 -43 43 44 -46 46 -48 49 -50 -51 -52 -53 -54 -55 -56 56 57 58 -60 -61 -62 -63
leaf_value=0.010545659873556145 -0.11215619454126469 0.049351897319163583 -0.062222515239271442 0.056105059096883819 -0.035603473670815962 0.081107528855379835 0.013382216709558329 -0.059433562972518755 -0.10612920745956629 -0.0076709601378559663 -0.11283856151246584 0.062460937942617728 -0.068654840226146874 0.05605067856773948 -0.10093440885626458 -0.048150245298657288 0.074733320730434441 -0.044662761652872189 0.0025464257343926883 -0.10612429896800842 -0.050456018038968486 -0.062168715214925355 0.055659689576872708 0.0019821704623066601 0.055806853558217906 0.0064240983358037716 -0.14968848662429921 0.040134970540637395 -0.09362604771384854 -0.03899600817982906 0.096787732379661387 0.081825324645229999 -0.014109320852392363 -0.0094612118503714995 -0.071297722995178059 0.064044963795406973 -0.058767231472591976 0.001887211279018887 0.061491482980424311 -0.089076569031119046 -0.033103254658056296 0.068405835896824085 0.08496514652282211 0.080486369103549463 -0.010975393297243509 0.023863179701965141 -0.058602108829640301 0.021161857077097272 0.10477882525214761 -0.061842442777425337 -0.09796565934749743 0.0029904933569005294 -0.085257474671161182 0.040602546745582974 0.019467072365112737 0.086147113398246752 -0.087325464652358978 0.026283004617267215 0.063771074811603268 0.062096066715649906 -0.070029041062734304 -0.0020571868675142431
leaf_weight=12.460767000913622 13.654531389474867 23.23612305521965 18.859127730131149 27.57211172580719 26.717045158147812 26.555275499820709 17.018135383725166 19.479422375559807 17.373948752880096 30.678318098187447 13.3754615932703 18.993664428591728 37.326668545603752 14.43385846912861 16.958086311817169 18.014560684561733 17.306121796369556 13.646830797195433 34.202080607414246 11.386991292238234 13.019317373633383 51.587430372834206 11.978939220309256 13.285800263285639 37.348021864891052 14.936941906809809 11.621516942977903 13.610542684793471 12.351437270641325 17.059089243412018 12.439464271068571 21.027810737490654 16.3784653544426 12.574991211295126 31.138120353221893 18.094715744256973 17.196290791034698 12.445656225085257 12.22095710039139 23.726689219474792 16.166421666741371 20.039363339543343 115.19558553397655 18.79262287914753 15.660988643765448 26.745738640427589 12.304230555891989 16.223366677761078 12.151068478822706 17.843923568725586 13.595699995756148 12.574012920260428 13.378601387143133 12.647640749812124 14.938231959939001 11.661119461059569 14.715967655181887 13.260504335165018 20.600449115037918 12.02012464404106 16.9355505257845 14.19564141333103
leaf_count=53 61 103 80 121 113 134 87 86 96 132 57 84 161 62 72 77 73 59 146 50 57 237 52 56 161 64 51 57 53 73 56 94 68 55 135 79 75 52 54 108 73 85 632 100 77 119 55 68 52 76 59 55 58 53 65 49 61 57 90 52 72 59
internal_value=0 0.00808668 0.0167285 -0.00342468 0.0373802 0.0434975 0.0549979 0.0176374 -0.0342554 -0.012627 -0.0384946 -0.00158745 -0.00802105 -0.0372111 -0.0211934 -0.0468725 -0.0214526 0.0220928 0.00719065 -0.0451627 0.00554124 -0.0285555 -0.00488946 0.00557969 0.0220656 -0.0100266 -0.0879675 -0.0253112 -0.0388612 0.0186878 0.0255499 0.0136544 -0.00782281 0.0476637 -0.039721 -0.0182027 -0.0491649 -0.00655376 -0.0290224 -0.0577791 0.00762041 0.0196186 0.0681358 0.0743624 0.0389122 0.0188304 -0.00212076 0.00746169 0.0293457 -0.0223145 -0.0521449 0.056005 -0.0417895 -0.0111189 -0.0223988 0.0187833 0.00883022 -0.000998831 0.019464 -0.0021568 -0.0277339 -0.0454586
internal_weight=0 1008.48 711.6 360.146 351.454 312.089 225.276 58.6087 236.455 296.884 88.8024 208.081 189.087 64.7798 199.686 77.5471 47.911 30.953 124.308 23.8478 27.4532 219.081 122.139 103.28 76.6153 39.2673 29.6361 75.427 27.2884 160.46 143.401 86.8131 53.2103 33.6028 61.8164 167.493 45.7891 121.704 64.5597 36.1723 28.3874 100.46 166.667 149.649 34.4536 57.1447 39.05 80.4204 46.3531 34.0673 29.9742 39.1293 26.6644 39.3647 32.1345 130.961 103.389 91.7282 62.8166 42.2162 30.1961 28.9116
internal_count=5611 4537 3262 1546 1716 1550 1171 275 1074 1275 381 894 810 280 856 332 204 132 530 103 119 978 524 444 330 169 128 324 117 690 617 379 230 149 267 741 201 540 287 160 127 427 896 809 177 253 174 342 198 144 127 189 114 166 140 561 440 391 271 181 129 120
is_linear=0
shrinkage=0.1


Tree=14
num_leaves=63
num_cat=0
split_feature=25 25 5 27 0 22 21 5 25 3 24 22 24 5 24 27 24 0 25 21 0 2 22 22 18 10 3 1 27 24 6 0 13 27 25 12 13 1 18 25 4 22 4 25 10 5 1 27 4 22 27 1 11 27 24 24 0 3 27 13 2 24
split_gain=28.257 15.6916 13.9606 13.6816 14.4516 11.0659 12.3708 9.23792 8.98743 8.5807 8.04524 8.34515 7.98075 7.81415 7.65638 9.22706 7.28231 6.97952 6.70045 6.47045 6.36354 7.50227 6.71077 7.84285 6.94618 6.13275 6.07174 9.07494 7.02445 5.86775 5.60877 5.4894 5.44649 7.2986 7.03051 6.39071 5.85674 5.72532 5.83826 5.64857 5.46112 5.30179 6.56755 5.25833 5.18335 5.18305 5.11027 5.01502 5.15535 5.43372 4.8368 4.79357 4.79108 4.69922 4.52347 4.44556 4.39179 8.2475 7.62323 5.91756 4.37274 4.36195
threshold=1.2815000000000003 0.59250000000000014 0.80850000000000011 0.90650000000000019 1.7460000000000002 1.0515000000000001 1.1695000000000002 1.9180000000000001 0.94850000000000001 1.8335000000000001 1.0305000000000002 1.0215000000000003 0.64150000000000007 1.1815000000000002 0.98550000000000015 0.84850000000000014 1.0755000000000001 0.41750000000000004 0.93350000000000011 0.94450000000000001 1.1945000000000003 1.1565000000000001 1.0325000000000002 0.78450000000000009 -0.61749999999999983 0.23450000000000001 1.3185000000000002 -1.0194999999999996 1.2065000000000003 1.3685000000000003 -0.17249999999999996 1.0315000000000001 0.9405 0.72950000000000015 0.5635 1.6610000000000003 0.55950000000000022 -0.027499999999999997 0.32450000000000007 0.46950000000000003 -0.19149999999999998 0.85550000000000004 -0.33349999999999996 0.38050000000000006 -0.045499999999999992 0.67850000000000021 -0.13549999999999998 1.0835000000000001 0.48850000000000005 0.9425 0.85450000000000015 -0.034499999999999996 -0.85349999999999981 1.1955000000000002 0.80850000000000011 0.83350000000000002 0.78150000000000019 0.73050000000000004 0.74350000000000016 0.76150000000000018 -0.49549999999999994 0.95050000000000001
decision_type=2 2 2 2 2 2 2 2 2 2 2 2 2 2 2 2 2 2 2 2 2 2 2 2 2 2 2 2 2 2 2 2 2 2 2 2 2 2 2 2 2 2 2 2 2 2 2 2 2 2 2 2 2 2 2 2 2 2 2 2 2 2
left_child=1 32 5 8 7 12 52 10 -4 20 11 46 -3 19 15 17 -6 -14 41 30 21 22 23 -2 -24 -17 27 -12 -28 -22 -10 56 34 -34 35 36 43 45 -39 40 -35 -16 -43 -1 -26 -38 -5 48 49 -25 54 -23 -7 -29 -37 -33 58 -58 59 -19 -54 -8
right_child=9 2 3 4 16 6 61 -9 13 -11 26 -13 14 -15 18 25 -18 31 -20 -21 29 51 24 47 44 -27 28 53 -30 -31 -32 55 33 39 -36 50 37 38 -40 -41 -42 42 -44 -45 -46 -47 -48 -49 -50 -51 -52 -53 60 -55 -56 -57 57 -59 -60 -61 -62 -63
